digraph Tree {
node [shape=box, style="filled, rounded", color="black", fontname="helvetica"] ;
edge [fontname="helvetica"] ;
0 [label="UNASSIGNED <= 0.916\nsquared_error = 0.16\nsamples = 53881\nvalue = 0.201", fillcolor="#fae6d7"] ;
1 [label="TOTAL_DURATION <= 2.537\nsquared_error = 0.01\nsamples = 40326\nvalue = 0.011", fillcolor="#fffefd"] ;
0 -> 1 [labeldistance=2.5, labelangle=45, headlabel="True"] ;
2 [label="TOTAL_HTML <= -0.795\nsquared_error = 0.009\nsamples = 40280\nvalue = 0.009", fillcolor="#fffefd"] ;
1 -> 2 ;
3 [label="HTML_TO_IMAGE <= -0.437\nsquared_error = 0.074\nsamples = 2794\nvalue = 0.081", fillcolor="#fdf5ef"] ;
2 -> 3 ;
4 [label="DEPTH <= 0.439\nsquared_error = 0.06\nsamples = 2554\nvalue = 0.064", fillcolor="#fdf7f2"] ;
3 -> 4 ;
5 [label="STANDARD_DEVIATION <= -0.498\nsquared_error = 0.118\nsamples = 1021\nvalue = 0.136", fillcolor="#fbeee4"] ;
4 -> 5 ;
6 [label="AVERAGE_TIME <= -0.218\nsquared_error = 0.213\nsamples = 225\nvalue = 0.307", fillcolor="#f7d8c2"] ;
5 -> 6 ;
7 [label="DATA <= -0.181\nsquared_error = 0.243\nsamples = 93\nvalue = 0.581", fillcolor="#f0b68c"] ;
6 -> 7 ;
8 [label="DATA <= -0.181\nsquared_error = 0.055\nsamples = 17\nvalue = 0.941", fillcolor="#e78845"] ;
7 -> 8 ;
9 [label="squared_error = 0.0\nsamples = 1\nvalue = 0.0", fillcolor="#ffffff"] ;
8 -> 9 ;
10 [label="squared_error = 0.0\nsamples = 16\nvalue = 1.0", fillcolor="#e58139"] ;
8 -> 10 ;
11 [label="WIDTH <= -0.417\nsquared_error = 0.25\nsamples = 76\nvalue = 0.5", fillcolor="#f2c09c"] ;
7 -> 11 ;
12 [label="DATA <= -0.164\nsquared_error = 0.249\nsamples = 71\nvalue = 0.535", fillcolor="#f1bc95"] ;
11 -> 12 ;
13 [label="HTTP_RESPONSE_3XX <= 2.749\nsquared_error = 0.245\nsamples = 49\nvalue = 0.429", fillcolor="#f4c9aa"] ;
12 -> 13 ;
14 [label="DATA <= -0.18\nsquared_error = 0.238\nsamples = 46\nvalue = 0.391", fillcolor="#f5ceb2"] ;
13 -> 14 ;
15 [label="DATA <= -0.181\nsquared_error = 0.243\nsamples = 12\nvalue = 0.583", fillcolor="#f0b68c"] ;
14 -> 15 ;
16 [label="NIGHT <= 1.684\nsquared_error = 0.234\nsamples = 8\nvalue = 0.375", fillcolor="#f5d0b5"] ;
15 -> 16 ;
17 [label="DEPTH <= -0.567\nsquared_error = 0.204\nsamples = 7\nvalue = 0.286", fillcolor="#f8dbc6"] ;
16 -> 17 ;
18 [label="squared_error = 0.0\nsamples = 2\nvalue = 0.0", fillcolor="#ffffff"] ;
17 -> 18 ;
19 [label="DATA <= -0.181\nsquared_error = 0.24\nsamples = 5\nvalue = 0.4", fillcolor="#f5cdb0"] ;
17 -> 19 ;
20 [label="HTML_TO_IMAGE <= -0.634\nsquared_error = 0.222\nsamples = 3\nvalue = 0.667", fillcolor="#eeab7b"] ;
19 -> 20 ;
21 [label="squared_error = 0.0\nsamples = 1\nvalue = 1.0", fillcolor="#e58139"] ;
20 -> 21 ;
22 [label="DATA <= -0.181\nsquared_error = 0.25\nsamples = 2\nvalue = 0.5", fillcolor="#f2c09c"] ;
20 -> 22 ;
23 [label="squared_error = 0.0\nsamples = 1\nvalue = 0.0", fillcolor="#ffffff"] ;
22 -> 23 ;
24 [label="squared_error = 0.0\nsamples = 1\nvalue = 1.0", fillcolor="#e58139"] ;
22 -> 24 ;
25 [label="squared_error = 0.0\nsamples = 2\nvalue = 0.0", fillcolor="#ffffff"] ;
19 -> 25 ;
26 [label="squared_error = 0.0\nsamples = 1\nvalue = 1.0", fillcolor="#e58139"] ;
16 -> 26 ;
27 [label="squared_error = 0.0\nsamples = 4\nvalue = 1.0", fillcolor="#e58139"] ;
15 -> 27 ;
28 [label="STD_DEPTH <= 1.007\nsquared_error = 0.219\nsamples = 34\nvalue = 0.324", fillcolor="#f7d6bf"] ;
14 -> 28 ;
29 [label="HTML_TO_JS <= -0.026\nsquared_error = 0.232\nsamples = 30\nvalue = 0.367", fillcolor="#f5d1b6"] ;
28 -> 29 ;
30 [label="HTML_TO_CSS <= -0.149\nsquared_error = 0.25\nsamples = 14\nvalue = 0.5", fillcolor="#f2c09c"] ;
29 -> 30 ;
31 [label="squared_error = 0.0\nsamples = 3\nvalue = 1.0", fillcolor="#e58139"] ;
30 -> 31 ;
32 [label="CONSECUTIVE <= -0.689\nsquared_error = 0.231\nsamples = 11\nvalue = 0.364", fillcolor="#f6d1b7"] ;
30 -> 32 ;
33 [label="DATA <= -0.18\nsquared_error = 0.122\nsamples = 7\nvalue = 0.143", fillcolor="#fbede3"] ;
32 -> 33 ;
34 [label="TOTAL_DURATION <= -0.086\nsquared_error = 0.25\nsamples = 2\nvalue = 0.5", fillcolor="#f2c09c"] ;
33 -> 34 ;
35 [label="squared_error = 0.0\nsamples = 1\nvalue = 1.0", fillcolor="#e58139"] ;
34 -> 35 ;
36 [label="squared_error = 0.0\nsamples = 1\nvalue = 0.0", fillcolor="#ffffff"] ;
34 -> 36 ;
37 [label="squared_error = 0.0\nsamples = 5\nvalue = 0.0", fillcolor="#ffffff"] ;
33 -> 37 ;
38 [label="NUMBER_OF_REQUESTS <= -0.412\nsquared_error = 0.188\nsamples = 4\nvalue = 0.75", fillcolor="#eca06a"] ;
32 -> 38 ;
39 [label="DATA <= -0.176\nsquared_error = 0.25\nsamples = 2\nvalue = 0.5", fillcolor="#f2c09c"] ;
38 -> 39 ;
40 [label="squared_error = 0.0\nsamples = 1\nvalue = 1.0", fillcolor="#e58139"] ;
39 -> 40 ;
41 [label="squared_error = 0.0\nsamples = 1\nvalue = 0.0", fillcolor="#ffffff"] ;
39 -> 41 ;
42 [label="squared_error = 0.0\nsamples = 2\nvalue = 1.0", fillcolor="#e58139"] ;
38 -> 42 ;
43 [label="DATA <= -0.171\nsquared_error = 0.188\nsamples = 16\nvalue = 0.25", fillcolor="#f8e0ce"] ;
29 -> 43 ;
44 [label="squared_error = 0.0\nsamples = 7\nvalue = 0.0", fillcolor="#ffffff"] ;
43 -> 44 ;
45 [label="DATA <= -0.168\nsquared_error = 0.247\nsamples = 9\nvalue = 0.444", fillcolor="#f3c7a7"] ;
43 -> 45 ;
46 [label="squared_error = 0.0\nsamples = 2\nvalue = 1.0", fillcolor="#e58139"] ;
45 -> 46 ;
47 [label="DATA <= -0.167\nsquared_error = 0.204\nsamples = 7\nvalue = 0.286", fillcolor="#f8dbc6"] ;
45 -> 47 ;
48 [label="WIDTH <= -0.435\nsquared_error = 0.139\nsamples = 6\nvalue = 0.167", fillcolor="#fbeade"] ;
47 -> 48 ;
49 [label="DATA <= -0.167\nsquared_error = 0.25\nsamples = 2\nvalue = 0.5", fillcolor="#f2c09c"] ;
48 -> 49 ;
50 [label="squared_error = 0.0\nsamples = 1\nvalue = 0.0", fillcolor="#ffffff"] ;
49 -> 50 ;
51 [label="squared_error = 0.0\nsamples = 1\nvalue = 1.0", fillcolor="#e58139"] ;
49 -> 51 ;
52 [label="squared_error = 0.0\nsamples = 4\nvalue = 0.0", fillcolor="#ffffff"] ;
48 -> 52 ;
53 [label="squared_error = 0.0\nsamples = 1\nvalue = 1.0", fillcolor="#e58139"] ;
47 -> 53 ;
54 [label="squared_error = 0.0\nsamples = 4\nvalue = 0.0", fillcolor="#ffffff"] ;
28 -> 54 ;
55 [label="squared_error = 0.0\nsamples = 3\nvalue = 1.0", fillcolor="#e58139"] ;
13 -> 55 ;
56 [label="IMAGES <= -0.568\nsquared_error = 0.176\nsamples = 22\nvalue = 0.773", fillcolor="#eb9e66"] ;
12 -> 56 ;
57 [label="AVERAGE_TIME <= -0.221\nsquared_error = 0.154\nsamples = 21\nvalue = 0.81", fillcolor="#ea995f"] ;
56 -> 57 ;
58 [label="DATA <= -0.159\nsquared_error = 0.204\nsamples = 14\nvalue = 0.714", fillcolor="#eca572"] ;
57 -> 58 ;
59 [label="WIDTH <= -0.435\nsquared_error = 0.109\nsamples = 8\nvalue = 0.875", fillcolor="#e89152"] ;
58 -> 59 ;
60 [label="squared_error = 0.0\nsamples = 5\nvalue = 1.0", fillcolor="#e58139"] ;
59 -> 60 ;
61 [label="DATA <= -0.162\nsquared_error = 0.222\nsamples = 3\nvalue = 0.667", fillcolor="#eeab7b"] ;
59 -> 61 ;
62 [label="squared_error = 0.0\nsamples = 1\nvalue = 0.0", fillcolor="#ffffff"] ;
61 -> 62 ;
63 [label="squared_error = 0.0\nsamples = 2\nvalue = 1.0", fillcolor="#e58139"] ;
61 -> 63 ;
64 [label="WIDTH <= -0.435\nsquared_error = 0.25\nsamples = 6\nvalue = 0.5", fillcolor="#f2c09c"] ;
58 -> 64 ;
65 [label="DATA <= -0.154\nsquared_error = 0.188\nsamples = 4\nvalue = 0.25", fillcolor="#f8e0ce"] ;
64 -> 65 ;
66 [label="squared_error = 0.0\nsamples = 2\nvalue = 0.0", fillcolor="#ffffff"] ;
65 -> 66 ;
67 [label="squared_error = 0.25\nsamples = 2\nvalue = 0.5", fillcolor="#f2c09c"] ;
65 -> 67 ;
68 [label="squared_error = 0.0\nsamples = 2\nvalue = 1.0", fillcolor="#e58139"] ;
64 -> 68 ;
69 [label="squared_error = 0.0\nsamples = 7\nvalue = 1.0", fillcolor="#e58139"] ;
57 -> 69 ;
70 [label="squared_error = 0.0\nsamples = 1\nvalue = 0.0", fillcolor="#ffffff"] ;
56 -> 70 ;
71 [label="squared_error = 0.0\nsamples = 5\nvalue = 0.0", fillcolor="#ffffff"] ;
11 -> 71 ;
72 [label="DATA <= -0.162\nsquared_error = 0.101\nsamples = 132\nvalue = 0.114", fillcolor="#fcf1e8"] ;
6 -> 72 ;
73 [label="NIGHT <= 1.684\nsquared_error = 0.084\nsamples = 129\nvalue = 0.093", fillcolor="#fdf3ed"] ;
72 -> 73 ;
74 [label="DEPTH <= -0.567\nsquared_error = 0.062\nsamples = 120\nvalue = 0.067", fillcolor="#fdf7f2"] ;
73 -> 74 ;
75 [label="DATA <= -0.181\nsquared_error = 0.24\nsamples = 10\nvalue = 0.4", fillcolor="#f5cdb0"] ;
74 -> 75 ;
76 [label="squared_error = 0.0\nsamples = 4\nvalue = 1.0", fillcolor="#e58139"] ;
75 -> 76 ;
77 [label="squared_error = 0.0\nsamples = 6\nvalue = 0.0", fillcolor="#ffffff"] ;
75 -> 77 ;
78 [label="HTTP_RESPONSE_3XX <= 4.193\nsquared_error = 0.035\nsamples = 110\nvalue = 0.036", fillcolor="#fefaf8"] ;
74 -> 78 ;
79 [label="CONSECUTIVE <= -0.689\nsquared_error = 0.027\nsamples = 109\nvalue = 0.028", fillcolor="#fefcfa"] ;
78 -> 79 ;
80 [label="squared_error = 0.0\nsamples = 88\nvalue = 0.0", fillcolor="#ffffff"] ;
79 -> 80 ;
81 [label="DATA <= -0.18\nsquared_error = 0.122\nsamples = 21\nvalue = 0.143", fillcolor="#fbede3"] ;
79 -> 81 ;
82 [label="squared_error = 0.0\nsamples = 1\nvalue = 1.0", fillcolor="#e58139"] ;
81 -> 82 ;
83 [label="WIDTH <= -0.435\nsquared_error = 0.09\nsamples = 20\nvalue = 0.1", fillcolor="#fcf2eb"] ;
81 -> 83 ;
84 [label="DATA <= -0.171\nsquared_error = 0.05\nsamples = 19\nvalue = 0.053", fillcolor="#fef8f5"] ;
83 -> 84 ;
85 [label="squared_error = 0.0\nsamples = 16\nvalue = 0.0", fillcolor="#ffffff"] ;
84 -> 85 ;
86 [label="DATA <= -0.166\nsquared_error = 0.222\nsamples = 3\nvalue = 0.333", fillcolor="#f6d5bd"] ;
84 -> 86 ;
87 [label="squared_error = 0.0\nsamples = 1\nvalue = 1.0", fillcolor="#e58139"] ;
86 -> 87 ;
88 [label="squared_error = 0.0\nsamples = 2\nvalue = 0.0", fillcolor="#ffffff"] ;
86 -> 88 ;
89 [label="squared_error = 0.0\nsamples = 1\nvalue = 1.0", fillcolor="#e58139"] ;
83 -> 89 ;
90 [label="squared_error = 0.0\nsamples = 1\nvalue = 1.0", fillcolor="#e58139"] ;
78 -> 90 ;
91 [label="AVERAGE_TIME <= -0.212\nsquared_error = 0.247\nsamples = 9\nvalue = 0.444", fillcolor="#f3c7a7"] ;
73 -> 91 ;
92 [label="HTML_TO_IMAGE <= -0.634\nsquared_error = 0.16\nsamples = 5\nvalue = 0.8", fillcolor="#ea9a61"] ;
91 -> 92 ;
93 [label="squared_error = 0.0\nsamples = 4\nvalue = 1.0", fillcolor="#e58139"] ;
92 -> 93 ;
94 [label="squared_error = 0.0\nsamples = 1\nvalue = 0.0", fillcolor="#ffffff"] ;
92 -> 94 ;
95 [label="squared_error = 0.0\nsamples = 4\nvalue = 0.0", fillcolor="#ffffff"] ;
91 -> 95 ;
96 [label="squared_error = 0.0\nsamples = 3\nvalue = 1.0", fillcolor="#e58139"] ;
72 -> 96 ;
97 [label="HTTP_RESPONSE_3XX <= 2.027\nsquared_error = 0.08\nsamples = 796\nvalue = 0.088", fillcolor="#fdf4ee"] ;
5 -> 97 ;
98 [label="DATA <= -0.165\nsquared_error = 0.078\nsamples = 794\nvalue = 0.086", fillcolor="#fdf4ee"] ;
97 -> 98 ;
99 [label="DATA <= -0.182\nsquared_error = 0.072\nsamples = 771\nvalue = 0.078", fillcolor="#fdf5f0"] ;
98 -> 99 ;
100 [label="HTML_TO_JS <= -0.398\nsquared_error = 0.128\nsamples = 166\nvalue = 0.151", fillcolor="#fbece1"] ;
99 -> 100 ;
101 [label="DEPTH <= -0.567\nsquared_error = 0.113\nsamples = 162\nvalue = 0.13", fillcolor="#fcefe5"] ;
100 -> 101 ;
102 [label="NIGHT <= 1.684\nsquared_error = 0.18\nsamples = 89\nvalue = 0.236", fillcolor="#f9e1d0"] ;
101 -> 102 ;
103 [label="squared_error = 0.177\nsamples = 83\nvalue = 0.229", fillcolor="#f9e2d2"] ;
102 -> 103 ;
104 [label="squared_error = 0.222\nsamples = 6\nvalue = 0.333", fillcolor="#f6d5bd"] ;
102 -> 104 ;
105 [label="squared_error = 0.0\nsamples = 73\nvalue = 0.0", fillcolor="#ffffff"] ;
101 -> 105 ;
106 [label="squared_error = 0.0\nsamples = 4\nvalue = 1.0", fillcolor="#e58139"] ;
100 -> 106 ;
107 [label="DATA <= -0.177\nsquared_error = 0.055\nsamples = 605\nvalue = 0.058", fillcolor="#fdf8f4"] ;
99 -> 107 ;
108 [label="DATA <= -0.181\nsquared_error = 0.042\nsamples = 501\nvalue = 0.044", fillcolor="#fef9f6"] ;
107 -> 108 ;
109 [label="DATA <= -0.181\nsquared_error = 0.078\nsamples = 257\nvalue = 0.086", fillcolor="#fdf4ee"] ;
108 -> 109 ;
110 [label="DATA <= -0.182\nsquared_error = 0.05\nsamples = 248\nvalue = 0.052", fillcolor="#fef8f5"] ;
109 -> 110 ;
111 [label="DATA <= -0.182\nsquared_error = 0.013\nsamples = 149\nvalue = 0.013", fillcolor="#fffdfc"] ;
110 -> 111 ;
112 [label="squared_error = 0.0\nsamples = 83\nvalue = 0.0", fillcolor="#ffffff"] ;
111 -> 112 ;
113 [label="HTML_TO_CSS <= -0.149\nsquared_error = 0.029\nsamples = 66\nvalue = 0.03", fillcolor="#fefbf9"] ;
111 -> 113 ;
114 [label="NIGHT <= 1.684\nsquared_error = 0.015\nsamples = 65\nvalue = 0.015", fillcolor="#fffdfc"] ;
113 -> 114 ;
115 [label="squared_error = 0.017\nsamples = 59\nvalue = 0.017", fillcolor="#fffdfc"] ;
114 -> 115 ;
116 [label="squared_error = 0.0\nsamples = 6\nvalue = 0.0", fillcolor="#ffffff"] ;
114 -> 116 ;
117 [label="squared_error = 0.0\nsamples = 1\nvalue = 1.0", fillcolor="#e58139"] ;
113 -> 117 ;
118 [label="DATA <= -0.182\nsquared_error = 0.099\nsamples = 99\nvalue = 0.111", fillcolor="#fcf1e9"] ;
110 -> 118 ;
119 [label="PPI <= -0.033\nsquared_error = 0.122\nsamples = 7\nvalue = 0.857", fillcolor="#e99355"] ;
118 -> 119 ;
120 [label="NIGHT <= 1.684\nsquared_error = 0.222\nsamples = 3\nvalue = 0.667", fillcolor="#eeab7b"] ;
119 -> 120 ;
121 [label="squared_error = 0.25\nsamples = 2\nvalue = 0.5", fillcolor="#f2c09c"] ;
120 -> 121 ;
122 [label="squared_error = 0.0\nsamples = 1\nvalue = 1.0", fillcolor="#e58139"] ;
120 -> 122 ;
123 [label="squared_error = 0.0\nsamples = 4\nvalue = 1.0", fillcolor="#e58139"] ;
119 -> 123 ;
124 [label="DATA <= -0.181\nsquared_error = 0.051\nsamples = 92\nvalue = 0.054", fillcolor="#fef8f4"] ;
118 -> 124 ;
125 [label="PPI <= -0.033\nsquared_error = 0.196\nsamples = 15\nvalue = 0.267", fillcolor="#f8ddca"] ;
124 -> 125 ;
126 [label="squared_error = 0.222\nsamples = 6\nvalue = 0.667", fillcolor="#eeab7b"] ;
125 -> 126 ;
127 [label="squared_error = 0.0\nsamples = 9\nvalue = 0.0", fillcolor="#ffffff"] ;
125 -> 127 ;
128 [label="DATA <= -0.181\nsquared_error = 0.013\nsamples = 77\nvalue = 0.013", fillcolor="#fffdfc"] ;
124 -> 128 ;
129 [label="squared_error = 0.0\nsamples = 69\nvalue = 0.0", fillcolor="#ffffff"] ;
128 -> 129 ;
130 [label="HTML_TO_JS <= -0.398\nsquared_error = 0.109\nsamples = 8\nvalue = 0.125", fillcolor="#fcefe6"] ;
128 -> 130 ;
131 [label="squared_error = 0.0\nsamples = 6\nvalue = 0.0", fillcolor="#ffffff"] ;
130 -> 131 ;
132 [label="squared_error = 0.25\nsamples = 2\nvalue = 0.5", fillcolor="#f2c09c"] ;
130 -> 132 ;
133 [label="squared_error = 0.0\nsamples = 9\nvalue = 1.0", fillcolor="#e58139"] ;
109 -> 133 ;
134 [label="squared_error = 0.0\nsamples = 244\nvalue = 0.0", fillcolor="#ffffff"] ;
108 -> 134 ;
135 [label="DATA <= -0.177\nsquared_error = 0.109\nsamples = 104\nvalue = 0.125", fillcolor="#fcefe6"] ;
107 -> 135 ;
136 [label="DATA <= -0.177\nsquared_error = 0.109\nsamples = 8\nvalue = 0.875", fillcolor="#e89152"] ;
135 -> 136 ;
137 [label="squared_error = 0.0\nsamples = 2\nvalue = 1.0", fillcolor="#e58139"] ;
136 -> 137 ;
138 [label="NIGHT <= 1.684\nsquared_error = 0.139\nsamples = 6\nvalue = 0.833", fillcolor="#e9965a"] ;
136 -> 138 ;
139 [label="squared_error = 0.16\nsamples = 5\nvalue = 0.8", fillcolor="#ea9a61"] ;
138 -> 139 ;
140 [label="squared_error = 0.0\nsamples = 1\nvalue = 1.0", fillcolor="#e58139"] ;
138 -> 140 ;
141 [label="HTML_TO_JS <= -0.398\nsquared_error = 0.059\nsamples = 96\nvalue = 0.062", fillcolor="#fdf7f3"] ;
135 -> 141 ;
142 [label="squared_error = 0.0\nsamples = 79\nvalue = 0.0", fillcolor="#ffffff"] ;
141 -> 142 ;
143 [label="DATA <= -0.17\nsquared_error = 0.228\nsamples = 17\nvalue = 0.353", fillcolor="#f6d3b9"] ;
141 -> 143 ;
144 [label="squared_error = 0.0\nsamples = 6\nvalue = 0.0", fillcolor="#ffffff"] ;
143 -> 144 ;
145 [label="IMAGES <= -0.786\nsquared_error = 0.248\nsamples = 11\nvalue = 0.545", fillcolor="#f1ba93"] ;
143 -> 145 ;
146 [label="squared_error = 0.24\nsamples = 10\nvalue = 0.6", fillcolor="#efb388"] ;
145 -> 146 ;
147 [label="squared_error = 0.0\nsamples = 1\nvalue = 0.0", fillcolor="#ffffff"] ;
145 -> 147 ;
148 [label="IMAGES <= -0.909\nsquared_error = 0.227\nsamples = 23\nvalue = 0.348", fillcolor="#f6d3ba"] ;
98 -> 148 ;
149 [label="DATA <= -0.163\nsquared_error = 0.231\nsamples = 11\nvalue = 0.636", fillcolor="#eeaf81"] ;
148 -> 149 ;
150 [label="squared_error = 0.0\nsamples = 3\nvalue = 1.0", fillcolor="#e58139"] ;
149 -> 150 ;
151 [label="NUMBER_OF_REQUESTS <= -0.416\nsquared_error = 0.25\nsamples = 8\nvalue = 0.5", fillcolor="#f2c09c"] ;
149 -> 151 ;
152 [label="squared_error = 0.245\nsamples = 7\nvalue = 0.429", fillcolor="#f4c9aa"] ;
151 -> 152 ;
153 [label="squared_error = 0.0\nsamples = 1\nvalue = 1.0", fillcolor="#e58139"] ;
151 -> 153 ;
154 [label="DATA <= -0.164\nsquared_error = 0.076\nsamples = 12\nvalue = 0.083", fillcolor="#fdf4ee"] ;
148 -> 154 ;
155 [label="squared_error = 0.0\nsamples = 1\nvalue = 1.0", fillcolor="#e58139"] ;
154 -> 155 ;
156 [label="squared_error = 0.0\nsamples = 11\nvalue = 0.0", fillcolor="#ffffff"] ;
154 -> 156 ;
157 [label="squared_error = 0.0\nsamples = 2\nvalue = 1.0", fillcolor="#e58139"] ;
97 -> 157 ;
158 [label="DEPTH <= 1.11\nsquared_error = 0.016\nsamples = 1533\nvalue = 0.016", fillcolor="#fffdfc"] ;
4 -> 158 ;
159 [label="DATA <= -0.131\nsquared_error = 0.014\nsamples = 1530\nvalue = 0.014", fillcolor="#fffdfc"] ;
158 -> 159 ;
160 [label="DATA <= -0.181\nsquared_error = 0.01\nsamples = 1518\nvalue = 0.011", fillcolor="#fffefd"] ;
159 -> 160 ;
161 [label="DATA <= -0.181\nsquared_error = 0.215\nsamples = 16\nvalue = 0.312", fillcolor="#f7d8c1"] ;
160 -> 161 ;
162 [label="DATA <= -0.181\nsquared_error = 0.139\nsamples = 12\nvalue = 0.167", fillcolor="#fbeade"] ;
161 -> 162 ;
163 [label="DATA <= -0.182\nsquared_error = 0.222\nsamples = 6\nvalue = 0.333", fillcolor="#f6d5bd"] ;
162 -> 163 ;
164 [label="NIGHT <= 1.684\nsquared_error = 0.16\nsamples = 5\nvalue = 0.2", fillcolor="#fae6d7"] ;
163 -> 164 ;
165 [label="DATA <= -0.182\nsquared_error = 0.188\nsamples = 4\nvalue = 0.25", fillcolor="#f8e0ce"] ;
164 -> 165 ;
166 [label="squared_error = 0.0\nsamples = 1\nvalue = 0.0", fillcolor="#ffffff"] ;
165 -> 166 ;
167 [label="squared_error = 0.222\nsamples = 3\nvalue = 0.333", fillcolor="#f6d5bd"] ;
165 -> 167 ;
168 [label="squared_error = 0.0\nsamples = 1\nvalue = 0.0", fillcolor="#ffffff"] ;
164 -> 168 ;
169 [label="squared_error = 0.0\nsamples = 1\nvalue = 1.0", fillcolor="#e58139"] ;
163 -> 169 ;
170 [label="squared_error = 0.0\nsamples = 6\nvalue = 0.0", fillcolor="#ffffff"] ;
162 -> 170 ;
171 [label="NIGHT <= 1.684\nsquared_error = 0.188\nsamples = 4\nvalue = 0.75", fillcolor="#eca06a"] ;
161 -> 171 ;
172 [label="squared_error = 0.25\nsamples = 2\nvalue = 0.5", fillcolor="#f2c09c"] ;
171 -> 172 ;
173 [label="squared_error = 0.0\nsamples = 2\nvalue = 1.0", fillcolor="#e58139"] ;
171 -> 173 ;
174 [label="IMAGES <= -0.675\nsquared_error = 0.007\nsamples = 1502\nvalue = 0.007", fillcolor="#fffefe"] ;
160 -> 174 ;
175 [label="WIDTH <= -0.408\nsquared_error = 0.001\nsamples = 1359\nvalue = 0.001", fillcolor="#ffffff"] ;
174 -> 175 ;
176 [label="DATA <= -0.176\nsquared_error = 0.001\nsamples = 1333\nvalue = 0.001", fillcolor="#ffffff"] ;
175 -> 176 ;
177 [label="squared_error = 0.0\nsamples = 828\nvalue = 0.0", fillcolor="#ffffff"] ;
176 -> 177 ;
178 [label="DATA <= -0.176\nsquared_error = 0.002\nsamples = 505\nvalue = 0.002", fillcolor="#ffffff"] ;
176 -> 178 ;
179 [label="squared_error = 0.0\nsamples = 1\nvalue = 1.0", fillcolor="#e58139"] ;
178 -> 179 ;
180 [label="squared_error = 0.0\nsamples = 504\nvalue = 0.0", fillcolor="#ffffff"] ;
178 -> 180 ;
181 [label="AVERAGE_TIME <= -0.218\nsquared_error = 0.037\nsamples = 26\nvalue = 0.038", fillcolor="#fefaf7"] ;
175 -> 181 ;
182 [label="DATA <= -0.163\nsquared_error = 0.222\nsamples = 3\nvalue = 0.333", fillcolor="#f6d5bd"] ;
181 -> 182 ;
183 [label="squared_error = 0.0\nsamples = 1\nvalue = 1.0", fillcolor="#e58139"] ;
182 -> 183 ;
184 [label="squared_error = 0.0\nsamples = 2\nvalue = 0.0", fillcolor="#ffffff"] ;
182 -> 184 ;
185 [label="squared_error = 0.0\nsamples = 23\nvalue = 0.0", fillcolor="#ffffff"] ;
181 -> 185 ;
186 [label="AVERAGE_TIME <= -0.217\nsquared_error = 0.059\nsamples = 143\nvalue = 0.063", fillcolor="#fdf7f3"] ;
174 -> 186 ;
187 [label="STD_DEPTH <= 0.723\nsquared_error = 0.142\nsamples = 41\nvalue = 0.171", fillcolor="#fbe9dd"] ;
186 -> 187 ;
188 [label="AVERAGE_TIME <= -0.218\nsquared_error = 0.083\nsamples = 33\nvalue = 0.091", fillcolor="#fdf4ed"] ;
187 -> 188 ;
189 [label="AVERAGE_TIME <= -0.22\nsquared_error = 0.059\nsamples = 32\nvalue = 0.062", fillcolor="#fdf7f3"] ;
188 -> 189 ;
190 [label="squared_error = 0.0\nsamples = 15\nvalue = 0.0", fillcolor="#ffffff"] ;
189 -> 190 ;
191 [label="HTML_TO_CSS <= 0.425\nsquared_error = 0.104\nsamples = 17\nvalue = 0.118", fillcolor="#fcf0e8"] ;
189 -> 191 ;
192 [label="DATA <= -0.162\nsquared_error = 0.16\nsamples = 10\nvalue = 0.2", fillcolor="#fae6d7"] ;
191 -> 192 ;
193 [label="CONSECUTIVE <= -0.242\nsquared_error = 0.109\nsamples = 8\nvalue = 0.125", fillcolor="#fcefe6"] ;
192 -> 193 ;
194 [label="squared_error = 0.0\nsamples = 5\nvalue = 0.0", fillcolor="#ffffff"] ;
193 -> 194 ;
195 [label="DATA <= -0.174\nsquared_error = 0.222\nsamples = 3\nvalue = 0.333", fillcolor="#f6d5bd"] ;
193 -> 195 ;
196 [label="squared_error = 0.0\nsamples = 1\nvalue = 0.0", fillcolor="#ffffff"] ;
195 -> 196 ;
197 [label="DATA <= -0.165\nsquared_error = 0.25\nsamples = 2\nvalue = 0.5", fillcolor="#f2c09c"] ;
195 -> 197 ;
198 [label="squared_error = 0.0\nsamples = 1\nvalue = 1.0", fillcolor="#e58139"] ;
197 -> 198 ;
199 [label="squared_error = 0.0\nsamples = 1\nvalue = 0.0", fillcolor="#ffffff"] ;
197 -> 199 ;
200 [label="CONSECUTIVE <= -0.837\nsquared_error = 0.25\nsamples = 2\nvalue = 0.5", fillcolor="#f2c09c"] ;
192 -> 200 ;
201 [label="squared_error = 0.0\nsamples = 1\nvalue = 1.0", fillcolor="#e58139"] ;
200 -> 201 ;
202 [label="squared_error = 0.0\nsamples = 1\nvalue = 0.0", fillcolor="#ffffff"] ;
200 -> 202 ;
203 [label="squared_error = 0.0\nsamples = 7\nvalue = 0.0", fillcolor="#ffffff"] ;
191 -> 203 ;
204 [label="squared_error = 0.0\nsamples = 1\nvalue = 1.0", fillcolor="#e58139"] ;
188 -> 204 ;
205 [label="STANDARD_DEVIATION <= -0.499\nsquared_error = 0.25\nsamples = 8\nvalue = 0.5", fillcolor="#f2c09c"] ;
187 -> 205 ;
206 [label="squared_error = 0.0\nsamples = 4\nvalue = 0.0", fillcolor="#ffffff"] ;
205 -> 206 ;
207 [label="squared_error = 0.0\nsamples = 4\nvalue = 1.0", fillcolor="#e58139"] ;
205 -> 207 ;
208 [label="HTML_TO_JS <= -0.398\nsquared_error = 0.019\nsamples = 102\nvalue = 0.02", fillcolor="#fefdfb"] ;
186 -> 208 ;
209 [label="STANDARD_DEVIATION <= -0.488\nsquared_error = 0.13\nsamples = 13\nvalue = 0.154", fillcolor="#fbece1"] ;
208 -> 209 ;
210 [label="squared_error = 0.0\nsamples = 11\nvalue = 0.0", fillcolor="#ffffff"] ;
209 -> 210 ;
211 [label="squared_error = 0.0\nsamples = 2\nvalue = 1.0", fillcolor="#e58139"] ;
209 -> 211 ;
212 [label="squared_error = 0.0\nsamples = 89\nvalue = 0.0", fillcolor="#ffffff"] ;
208 -> 212 ;
213 [label="AVERAGE_TIME <= -0.209\nsquared_error = 0.25\nsamples = 12\nvalue = 0.5", fillcolor="#f2c09c"] ;
159 -> 213 ;
214 [label="SF_REFERRER <= 0.557\nsquared_error = 0.139\nsamples = 6\nvalue = 0.833", fillcolor="#e9965a"] ;
213 -> 214 ;
215 [label="squared_error = 0.0\nsamples = 5\nvalue = 1.0", fillcolor="#e58139"] ;
214 -> 215 ;
216 [label="squared_error = 0.0\nsamples = 1\nvalue = 0.0", fillcolor="#ffffff"] ;
214 -> 216 ;
217 [label="DATA <= -0.101\nsquared_error = 0.139\nsamples = 6\nvalue = 0.167", fillcolor="#fbeade"] ;
213 -> 217 ;
218 [label="squared_error = 0.0\nsamples = 5\nvalue = 0.0", fillcolor="#ffffff"] ;
217 -> 218 ;
219 [label="squared_error = 0.0\nsamples = 1\nvalue = 1.0", fillcolor="#e58139"] ;
217 -> 219 ;
220 [label="squared_error = 0.0\nsamples = 3\nvalue = 1.0", fillcolor="#e58139"] ;
158 -> 220 ;
221 [label="AVERAGE_TIME <= -0.216\nsquared_error = 0.19\nsamples = 240\nvalue = 0.254", fillcolor="#f8dfcd"] ;
3 -> 221 ;
222 [label="SF_REFERRER <= -0.152\nsquared_error = 0.245\nsamples = 129\nvalue = 0.426", fillcolor="#f4c9ab"] ;
221 -> 222 ;
223 [label="TOTAL_DURATION <= -0.085\nsquared_error = 0.243\nsamples = 70\nvalue = 0.586", fillcolor="#f0b58b"] ;
222 -> 223 ;
224 [label="HTML_TO_CSS <= 1.286\nsquared_error = 0.241\nsamples = 37\nvalue = 0.405", fillcolor="#f4ccaf"] ;
223 -> 224 ;
225 [label="STD_DEPTH <= 0.705\nsquared_error = 0.183\nsamples = 29\nvalue = 0.241", fillcolor="#f9e1cf"] ;
224 -> 225 ;
226 [label="AVERAGE_TIME <= -0.219\nsquared_error = 0.13\nsamples = 26\nvalue = 0.154", fillcolor="#fbece1"] ;
225 -> 226 ;
227 [label="DATA <= -0.181\nsquared_error = 0.106\nsamples = 25\nvalue = 0.12", fillcolor="#fcf0e7"] ;
226 -> 227 ;
228 [label="CONSECUTIVE <= 1.096\nsquared_error = 0.25\nsamples = 2\nvalue = 0.5", fillcolor="#f2c09c"] ;
227 -> 228 ;
229 [label="squared_error = 0.0\nsamples = 1\nvalue = 1.0", fillcolor="#e58139"] ;
228 -> 229 ;
230 [label="squared_error = 0.0\nsamples = 1\nvalue = 0.0", fillcolor="#ffffff"] ;
228 -> 230 ;
231 [label="HTML_TO_IMAGE <= -0.24\nsquared_error = 0.079\nsamples = 23\nvalue = 0.087", fillcolor="#fdf4ee"] ;
227 -> 231 ;
232 [label="squared_error = 0.0\nsamples = 14\nvalue = 0.0", fillcolor="#ffffff"] ;
231 -> 232 ;
233 [label="WIDTH <= -0.426\nsquared_error = 0.173\nsamples = 9\nvalue = 0.222", fillcolor="#f9e3d3"] ;
231 -> 233 ;
234 [label="squared_error = 0.0\nsamples = 1\nvalue = 1.0", fillcolor="#e58139"] ;
233 -> 234 ;
235 [label="DATA <= -0.14\nsquared_error = 0.109\nsamples = 8\nvalue = 0.125", fillcolor="#fcefe6"] ;
233 -> 235 ;
236 [label="squared_error = 0.0\nsamples = 6\nvalue = 0.0", fillcolor="#ffffff"] ;
235 -> 236 ;
237 [label="WIDTH <= -0.346\nsquared_error = 0.25\nsamples = 2\nvalue = 0.5", fillcolor="#f2c09c"] ;
235 -> 237 ;
238 [label="squared_error = 0.0\nsamples = 1\nvalue = 1.0", fillcolor="#e58139"] ;
237 -> 238 ;
239 [label="squared_error = 0.0\nsamples = 1\nvalue = 0.0", fillcolor="#ffffff"] ;
237 -> 239 ;
240 [label="squared_error = 0.0\nsamples = 1\nvalue = 1.0", fillcolor="#e58139"] ;
226 -> 240 ;
241 [label="squared_error = 0.0\nsamples = 3\nvalue = 1.0", fillcolor="#e58139"] ;
225 -> 241 ;
242 [label="squared_error = 0.0\nsamples = 8\nvalue = 1.0", fillcolor="#e58139"] ;
224 -> 242 ;
243 [label="SF_FILETYPE <= 0.013\nsquared_error = 0.167\nsamples = 33\nvalue = 0.788", fillcolor="#eb9c63"] ;
223 -> 243 ;
244 [label="squared_error = 0.0\nsamples = 15\nvalue = 1.0", fillcolor="#e58139"] ;
243 -> 244 ;
245 [label="CONSECUTIVE <= -0.862\nsquared_error = 0.238\nsamples = 18\nvalue = 0.611", fillcolor="#efb286"] ;
243 -> 245 ;
246 [label="squared_error = 0.0\nsamples = 5\nvalue = 1.0", fillcolor="#e58139"] ;
245 -> 246 ;
247 [label="STD_DEPTH <= 0.659\nsquared_error = 0.249\nsamples = 13\nvalue = 0.462", fillcolor="#f3c5a4"] ;
245 -> 247 ;
248 [label="DATA <= -0.135\nsquared_error = 0.188\nsamples = 8\nvalue = 0.25", fillcolor="#f8e0ce"] ;
247 -> 248 ;
249 [label="STANDARD_DEVIATION <= -0.499\nsquared_error = 0.122\nsamples = 7\nvalue = 0.143", fillcolor="#fbede3"] ;
248 -> 249 ;
250 [label="HTML_TO_IMAGE <= -0.24\nsquared_error = 0.25\nsamples = 2\nvalue = 0.5", fillcolor="#f2c09c"] ;
249 -> 250 ;
251 [label="squared_error = 0.0\nsamples = 1\nvalue = 1.0", fillcolor="#e58139"] ;
250 -> 251 ;
252 [label="squared_error = 0.0\nsamples = 1\nvalue = 0.0", fillcolor="#ffffff"] ;
250 -> 252 ;
253 [label="squared_error = 0.0\nsamples = 5\nvalue = 0.0", fillcolor="#ffffff"] ;
249 -> 253 ;
254 [label="squared_error = 0.0\nsamples = 1\nvalue = 1.0", fillcolor="#e58139"] ;
248 -> 254 ;
255 [label="STD_DEPTH <= 1.184\nsquared_error = 0.16\nsamples = 5\nvalue = 0.8", fillcolor="#ea9a61"] ;
247 -> 255 ;
256 [label="squared_error = 0.0\nsamples = 4\nvalue = 1.0", fillcolor="#e58139"] ;
255 -> 256 ;
257 [label="squared_error = 0.0\nsamples = 1\nvalue = 0.0", fillcolor="#ffffff"] ;
255 -> 257 ;
258 [label="CONSECUTIVE <= 0.225\nsquared_error = 0.181\nsamples = 59\nvalue = 0.237", fillcolor="#f9e1d0"] ;
222 -> 258 ;
259 [label="STANDARD_DEVIATION <= -0.489\nsquared_error = 0.153\nsamples = 53\nvalue = 0.189", fillcolor="#fae7da"] ;
258 -> 259 ;
260 [label="NIGHT <= 1.684\nsquared_error = 0.143\nsamples = 52\nvalue = 0.173", fillcolor="#fae9dd"] ;
259 -> 260 ;
261 [label="SF_FILETYPE <= 0.421\nsquared_error = 0.132\nsamples = 51\nvalue = 0.157", fillcolor="#fbebe0"] ;
260 -> 261 ;
262 [label="squared_error = 0.0\nsamples = 16\nvalue = 0.0", fillcolor="#ffffff"] ;
261 -> 262 ;
263 [label="IMAGES <= 1.203\nsquared_error = 0.176\nsamples = 35\nvalue = 0.229", fillcolor="#f9e2d2"] ;
261 -> 263 ;
264 [label="TOTAL_DURATION <= -0.085\nsquared_error = 0.152\nsamples = 32\nvalue = 0.188", fillcolor="#fae7da"] ;
263 -> 264 ;
265 [label="CONSECUTIVE <= -0.179\nsquared_error = 0.086\nsamples = 21\nvalue = 0.095", fillcolor="#fdf3ec"] ;
264 -> 265 ;
266 [label="SF_REFERRER <= 0.033\nsquared_error = 0.048\nsamples = 20\nvalue = 0.05", fillcolor="#fef9f5"] ;
265 -> 266 ;
267 [label="STD_DEPTH <= 0.897\nsquared_error = 0.25\nsamples = 2\nvalue = 0.5", fillcolor="#f2c09c"] ;
266 -> 267 ;
268 [label="squared_error = 0.0\nsamples = 1\nvalue = 1.0", fillcolor="#e58139"] ;
267 -> 268 ;
269 [label="squared_error = 0.0\nsamples = 1\nvalue = 0.0", fillcolor="#ffffff"] ;
267 -> 269 ;
270 [label="squared_error = 0.0\nsamples = 18\nvalue = 0.0", fillcolor="#ffffff"] ;
266 -> 270 ;
271 [label="squared_error = 0.0\nsamples = 1\nvalue = 1.0", fillcolor="#e58139"] ;
265 -> 271 ;
272 [label="HTML_TO_IMAGE <= -0.044\nsquared_error = 0.231\nsamples = 11\nvalue = 0.364", fillcolor="#f6d1b7"] ;
264 -> 272 ;
273 [label="STD_DEPTH <= -0.391\nsquared_error = 0.173\nsamples = 9\nvalue = 0.222", fillcolor="#f9e3d3"] ;
272 -> 273 ;
274 [label="squared_error = 0.0\nsamples = 1\nvalue = 1.0", fillcolor="#e58139"] ;
273 -> 274 ;
275 [label="CONSECUTIVE <= -0.327\nsquared_error = 0.109\nsamples = 8\nvalue = 0.125", fillcolor="#fcefe6"] ;
273 -> 275 ;
276 [label="squared_error = 0.0\nsamples = 6\nvalue = 0.0", fillcolor="#ffffff"] ;
275 -> 276 ;
277 [label="IMAGES <= 0.133\nsquared_error = 0.25\nsamples = 2\nvalue = 0.5", fillcolor="#f2c09c"] ;
275 -> 277 ;
278 [label="squared_error = 0.0\nsamples = 1\nvalue = 0.0", fillcolor="#ffffff"] ;
277 -> 278 ;
279 [label="squared_error = 0.0\nsamples = 1\nvalue = 1.0", fillcolor="#e58139"] ;
277 -> 279 ;
280 [label="squared_error = 0.0\nsamples = 2\nvalue = 1.0", fillcolor="#e58139"] ;
272 -> 280 ;
281 [label="STANDARD_DEVIATION <= -0.496\nsquared_error = 0.222\nsamples = 3\nvalue = 0.667", fillcolor="#eeab7b"] ;
263 -> 281 ;
282 [label="squared_error = 0.0\nsamples = 2\nvalue = 1.0", fillcolor="#e58139"] ;
281 -> 282 ;
283 [label="squared_error = 0.0\nsamples = 1\nvalue = 0.0", fillcolor="#ffffff"] ;
281 -> 283 ;
284 [label="squared_error = 0.0\nsamples = 1\nvalue = 1.0", fillcolor="#e58139"] ;
260 -> 284 ;
285 [label="squared_error = 0.0\nsamples = 1\nvalue = 1.0", fillcolor="#e58139"] ;
259 -> 285 ;
286 [label="AVERAGE_TIME <= -0.219\nsquared_error = 0.222\nsamples = 6\nvalue = 0.667", fillcolor="#eeab7b"] ;
258 -> 286 ;
287 [label="squared_error = 0.0\nsamples = 3\nvalue = 1.0", fillcolor="#e58139"] ;
286 -> 287 ;
288 [label="HTML_TO_JS <= 0.531\nsquared_error = 0.222\nsamples = 3\nvalue = 0.333", fillcolor="#f6d5bd"] ;
286 -> 288 ;
289 [label="squared_error = 0.0\nsamples = 2\nvalue = 0.0", fillcolor="#ffffff"] ;
288 -> 289 ;
290 [label="squared_error = 0.0\nsamples = 1\nvalue = 1.0", fillcolor="#e58139"] ;
288 -> 290 ;
291 [label="UNASSIGNED <= 0.57\nsquared_error = 0.051\nsamples = 111\nvalue = 0.054", fillcolor="#fef8f4"] ;
221 -> 291 ;
292 [label="IMAGES <= -0.509\nsquared_error = 0.036\nsamples = 108\nvalue = 0.037", fillcolor="#fefaf8"] ;
291 -> 292 ;
293 [label="squared_error = 0.0\nsamples = 1\nvalue = 1.0", fillcolor="#e58139"] ;
292 -> 293 ;
294 [label="SF_REFERRER <= -0.019\nsquared_error = 0.027\nsamples = 107\nvalue = 0.028", fillcolor="#fefbf9"] ;
292 -> 294 ;
295 [label="SF_FILETYPE <= 1.431\nsquared_error = 0.09\nsamples = 30\nvalue = 0.1", fillcolor="#fcf2eb"] ;
294 -> 295 ;
296 [label="TOTAL_DURATION <= -0.085\nsquared_error = 0.064\nsamples = 29\nvalue = 0.069", fillcolor="#fdf6f1"] ;
295 -> 296 ;
297 [label="squared_error = 0.0\nsamples = 1\nvalue = 1.0", fillcolor="#e58139"] ;
296 -> 297 ;
298 [label="HTTP_RESPONSE_3XX <= 1.907\nsquared_error = 0.034\nsamples = 28\nvalue = 0.036", fillcolor="#fefaf8"] ;
296 -> 298 ;
299 [label="squared_error = 0.0\nsamples = 25\nvalue = 0.0", fillcolor="#ffffff"] ;
298 -> 299 ;
300 [label="TOTAL_DURATION <= -0.081\nsquared_error = 0.222\nsamples = 3\nvalue = 0.333", fillcolor="#f6d5bd"] ;
298 -> 300 ;
301 [label="squared_error = 0.0\nsamples = 1\nvalue = 1.0", fillcolor="#e58139"] ;
300 -> 301 ;
302 [label="squared_error = 0.0\nsamples = 2\nvalue = 0.0", fillcolor="#ffffff"] ;
300 -> 302 ;
303 [label="squared_error = 0.0\nsamples = 1\nvalue = 1.0", fillcolor="#e58139"] ;
295 -> 303 ;
304 [label="squared_error = 0.0\nsamples = 77\nvalue = 0.0", fillcolor="#ffffff"] ;
294 -> 304 ;
305 [label="AVERAGE_TIME <= 0.19\nsquared_error = 0.222\nsamples = 3\nvalue = 0.667", fillcolor="#eeab7b"] ;
291 -> 305 ;
306 [label="squared_error = 0.0\nsamples = 1\nvalue = 0.0", fillcolor="#ffffff"] ;
305 -> 306 ;
307 [label="squared_error = 0.0\nsamples = 2\nvalue = 1.0", fillcolor="#e58139"] ;
305 -> 307 ;
308 [label="STD_DEPTH <= 4.711\nsquared_error = 0.004\nsamples = 37486\nvalue = 0.004", fillcolor="#fffefe"] ;
2 -> 308 ;
309 [label="UNASSIGNED <= -0.111\nsquared_error = 0.004\nsamples = 37449\nvalue = 0.004", fillcolor="#fffffe"] ;
308 -> 309 ;
310 [label="HEAD_METHOD <= 16.736\nsquared_error = 0.002\nsamples = 35636\nvalue = 0.002", fillcolor="#ffffff"] ;
309 -> 310 ;
311 [label="WIDTH <= -0.453\nsquared_error = 0.002\nsamples = 35635\nvalue = 0.002", fillcolor="#ffffff"] ;
310 -> 311 ;
312 [label="DATA <= -0.179\nsquared_error = 0.09\nsamples = 60\nvalue = 0.1", fillcolor="#fcf2eb"] ;
311 -> 312 ;
313 [label="squared_error = 0.0\nsamples = 24\nvalue = 0.0", fillcolor="#ffffff"] ;
312 -> 313 ;
314 [label="DATA <= -0.179\nsquared_error = 0.139\nsamples = 36\nvalue = 0.167", fillcolor="#fbeade"] ;
312 -> 314 ;
315 [label="squared_error = 0.139\nsamples = 6\nvalue = 0.833", fillcolor="#e9965a"] ;
314 -> 315 ;
316 [label="DATA <= -0.178\nsquared_error = 0.032\nsamples = 30\nvalue = 0.033", fillcolor="#fefbf8"] ;
314 -> 316 ;
317 [label="squared_error = 0.0\nsamples = 20\nvalue = 0.0", fillcolor="#ffffff"] ;
316 -> 317 ;
318 [label="DATA <= -0.177\nsquared_error = 0.09\nsamples = 10\nvalue = 0.1", fillcolor="#fcf2eb"] ;
316 -> 318 ;
319 [label="squared_error = 0.0\nsamples = 1\nvalue = 1.0", fillcolor="#e58139"] ;
318 -> 319 ;
320 [label="squared_error = 0.0\nsamples = 9\nvalue = 0.0", fillcolor="#ffffff"] ;
318 -> 320 ;
321 [label="NUMBER_OF_REQUESTS <= -0.318\nsquared_error = 0.002\nsamples = 35575\nvalue = 0.002", fillcolor="#ffffff"] ;
311 -> 321 ;
322 [label="DATA <= -0.115\nsquared_error = 0.007\nsamples = 7050\nvalue = 0.007", fillcolor="#fffefe"] ;
321 -> 322 ;
323 [label="TOTAL_HTML <= -0.155\nsquared_error = 0.006\nsamples = 6973\nvalue = 0.006", fillcolor="#fffefe"] ;
322 -> 323 ;
324 [label="TOTAL_DURATION <= 0.142\nsquared_error = 0.013\nsamples = 1994\nvalue = 0.013", fillcolor="#fffdfc"] ;
323 -> 324 ;
325 [label="SF_FILETYPE <= 2.002\nsquared_error = 0.012\nsamples = 1992\nvalue = 0.013", fillcolor="#fffdfd"] ;
324 -> 325 ;
326 [label="AVERAGE_TIME <= -0.22\nsquared_error = 0.01\nsamples = 1939\nvalue = 0.01", fillcolor="#fffefd"] ;
325 -> 326 ;
327 [label="squared_error = 0.0\nsamples = 900\nvalue = 0.0", fillcolor="#ffffff"] ;
326 -> 327 ;
328 [label="STANDARD_DEVIATION <= -0.502\nsquared_error = 0.019\nsamples = 1039\nvalue = 0.019", fillcolor="#fefdfb"] ;
326 -> 328 ;
329 [label="squared_error = 0.0\nsamples = 1\nvalue = 1.0", fillcolor="#e58139"] ;
328 -> 329 ;
330 [label="STANDARD_DEVIATION <= -0.496\nsquared_error = 0.018\nsamples = 1038\nvalue = 0.018", fillcolor="#fffdfb"] ;
328 -> 330 ;
331 [label="HTML_TO_JS <= 1.832\nsquared_error = 0.091\nsamples = 79\nvalue = 0.101", fillcolor="#fcf2eb"] ;
330 -> 331 ;
332 [label="STANDARD_DEVIATION <= -0.497\nsquared_error = 0.082\nsamples = 78\nvalue = 0.09", fillcolor="#fdf4ed"] ;
331 -> 332 ;
333 [label="NIGHT <= 1.684\nsquared_error = 0.021\nsamples = 47\nvalue = 0.021", fillcolor="#fefcfb"] ;
332 -> 333 ;
334 [label="squared_error = 0.0\nsamples = 44\nvalue = 0.0", fillcolor="#ffffff"] ;
333 -> 334 ;
335 [label="SF_FILETYPE <= 0.751\nsquared_error = 0.222\nsamples = 3\nvalue = 0.333", fillcolor="#f6d5bd"] ;
333 -> 335 ;
336 [label="squared_error = 0.0\nsamples = 1\nvalue = 1.0", fillcolor="#e58139"] ;
335 -> 336 ;
337 [label="squared_error = 0.0\nsamples = 2\nvalue = 0.0", fillcolor="#ffffff"] ;
335 -> 337 ;
338 [label="SF_FILETYPE <= 1.034\nsquared_error = 0.156\nsamples = 31\nvalue = 0.194", fillcolor="#fae7d9"] ;
332 -> 338 ;
339 [label="SF_REFERRER <= -0.765\nsquared_error = 0.05\nsamples = 19\nvalue = 0.053", fillcolor="#fef8f5"] ;
338 -> 339 ;
340 [label="squared_error = 0.0\nsamples = 1\nvalue = 1.0", fillcolor="#e58139"] ;
339 -> 340 ;
341 [label="squared_error = 0.0\nsamples = 18\nvalue = 0.0", fillcolor="#ffffff"] ;
339 -> 341 ;
342 [label="STD_DEPTH <= 0.399\nsquared_error = 0.243\nsamples = 12\nvalue = 0.417", fillcolor="#f4caac"] ;
338 -> 342 ;
343 [label="squared_error = 0.0\nsamples = 3\nvalue = 1.0", fillcolor="#e58139"] ;
342 -> 343 ;
344 [label="DATA <= -0.136\nsquared_error = 0.173\nsamples = 9\nvalue = 0.222", fillcolor="#f9e3d3"] ;
342 -> 344 ;
345 [label="squared_error = 0.0\nsamples = 6\nvalue = 0.0", fillcolor="#ffffff"] ;
344 -> 345 ;
346 [label="SF_FILETYPE <= 1.334\nsquared_error = 0.222\nsamples = 3\nvalue = 0.667", fillcolor="#eeab7b"] ;
344 -> 346 ;
347 [label="squared_error = 0.0\nsamples = 1\nvalue = 0.0", fillcolor="#ffffff"] ;
346 -> 347 ;
348 [label="squared_error = 0.0\nsamples = 2\nvalue = 1.0", fillcolor="#e58139"] ;
346 -> 348 ;
349 [label="squared_error = 0.0\nsamples = 1\nvalue = 1.0", fillcolor="#e58139"] ;
331 -> 349 ;
350 [label="UNASSIGNED <= -0.149\nsquared_error = 0.011\nsamples = 959\nvalue = 0.011", fillcolor="#fffefd"] ;
330 -> 350 ;
351 [label="STANDARD_DEVIATION <= -0.489\nsquared_error = 0.01\nsamples = 955\nvalue = 0.01", fillcolor="#fffefd"] ;
350 -> 351 ;
352 [label="STANDARD_DEVIATION <= -0.489\nsquared_error = 0.036\nsamples = 239\nvalue = 0.038", fillcolor="#fefaf8"] ;
351 -> 352 ;
353 [label="HTML_TO_JS <= 0.097\nsquared_error = 0.032\nsamples = 238\nvalue = 0.034", fillcolor="#fefbf8"] ;
352 -> 353 ;
354 [label="squared_error = 0.0\nsamples = 128\nvalue = 0.0", fillcolor="#ffffff"] ;
353 -> 354 ;
355 [label="IMAGES <= 0.065\nsquared_error = 0.067\nsamples = 110\nvalue = 0.073", fillcolor="#fdf6f1"] ;
353 -> 355 ;
356 [label="HTML_TO_CSS <= -0.149\nsquared_error = 0.023\nsamples = 86\nvalue = 0.023", fillcolor="#fefcfa"] ;
355 -> 356 ;
357 [label="AVERAGE_TIME <= -0.217\nsquared_error = 0.24\nsamples = 5\nvalue = 0.4", fillcolor="#f5cdb0"] ;
356 -> 357 ;
358 [label="squared_error = 0.0\nsamples = 3\nvalue = 0.0", fillcolor="#ffffff"] ;
357 -> 358 ;
359 [label="squared_error = 0.0\nsamples = 2\nvalue = 1.0", fillcolor="#e58139"] ;
357 -> 359 ;
360 [label="squared_error = 0.0\nsamples = 81\nvalue = 0.0", fillcolor="#ffffff"] ;
356 -> 360 ;
361 [label="NUMBER_OF_REQUESTS <= -0.34\nsquared_error = 0.188\nsamples = 24\nvalue = 0.25", fillcolor="#f8e0ce"] ;
355 -> 361 ;
362 [label="SF_FILETYPE <= 0.135\nsquared_error = 0.245\nsamples = 14\nvalue = 0.429", fillcolor="#f4c9aa"] ;
361 -> 362 ;
363 [label="squared_error = 0.0\nsamples = 3\nvalue = 1.0", fillcolor="#e58139"] ;
362 -> 363 ;
364 [label="STANDARD_DEVIATION <= -0.492\nsquared_error = 0.198\nsamples = 11\nvalue = 0.273", fillcolor="#f8ddc9"] ;
362 -> 364 ;
365 [label="STD_DEPTH <= 0.994\nsquared_error = 0.109\nsamples = 8\nvalue = 0.125", fillcolor="#fcefe6"] ;
364 -> 365 ;
366 [label="squared_error = 0.0\nsamples = 6\nvalue = 0.0", fillcolor="#ffffff"] ;
365 -> 366 ;
367 [label="TOTAL_DURATION <= -0.085\nsquared_error = 0.25\nsamples = 2\nvalue = 0.5", fillcolor="#f2c09c"] ;
365 -> 367 ;
368 [label="squared_error = 0.0\nsamples = 1\nvalue = 0.0", fillcolor="#ffffff"] ;
367 -> 368 ;
369 [label="squared_error = 0.0\nsamples = 1\nvalue = 1.0", fillcolor="#e58139"] ;
367 -> 369 ;
370 [label="SF_REFERRER <= -0.512\nsquared_error = 0.222\nsamples = 3\nvalue = 0.667", fillcolor="#eeab7b"] ;
364 -> 370 ;
371 [label="squared_error = 0.0\nsamples = 1\nvalue = 0.0", fillcolor="#ffffff"] ;
370 -> 371 ;
372 [label="squared_error = 0.0\nsamples = 2\nvalue = 1.0", fillcolor="#e58139"] ;
370 -> 372 ;
373 [label="squared_error = 0.0\nsamples = 10\nvalue = 0.0", fillcolor="#ffffff"] ;
361 -> 373 ;
374 [label="squared_error = 0.0\nsamples = 1\nvalue = 1.0", fillcolor="#e58139"] ;
352 -> 374 ;
375 [label="NUMBER_OF_REQUESTS <= -0.39\nsquared_error = 0.001\nsamples = 716\nvalue = 0.001", fillcolor="#ffffff"] ;
351 -> 375 ;
376 [label="STD_DEPTH <= 1.163\nsquared_error = 0.027\nsamples = 36\nvalue = 0.028", fillcolor="#fefcfa"] ;
375 -> 376 ;
377 [label="squared_error = 0.0\nsamples = 28\nvalue = 0.0", fillcolor="#ffffff"] ;
376 -> 377 ;
378 [label="STD_DEPTH <= 1.309\nsquared_error = 0.109\nsamples = 8\nvalue = 0.125", fillcolor="#fcefe6"] ;
376 -> 378 ;
379 [label="DATA <= -0.165\nsquared_error = 0.25\nsamples = 2\nvalue = 0.5", fillcolor="#f2c09c"] ;
378 -> 379 ;
380 [label="squared_error = 0.0\nsamples = 1\nvalue = 1.0", fillcolor="#e58139"] ;
379 -> 380 ;
381 [label="squared_error = 0.0\nsamples = 1\nvalue = 0.0", fillcolor="#ffffff"] ;
379 -> 381 ;
382 [label="squared_error = 0.0\nsamples = 6\nvalue = 0.0", fillcolor="#ffffff"] ;
378 -> 382 ;
383 [label="squared_error = 0.0\nsamples = 680\nvalue = 0.0", fillcolor="#ffffff"] ;
375 -> 383 ;
384 [label="SF_FILETYPE <= -0.327\nsquared_error = 0.188\nsamples = 4\nvalue = 0.25", fillcolor="#f8e0ce"] ;
350 -> 384 ;
385 [label="squared_error = 0.0\nsamples = 1\nvalue = 1.0", fillcolor="#e58139"] ;
384 -> 385 ;
386 [label="squared_error = 0.0\nsamples = 3\nvalue = 0.0", fillcolor="#ffffff"] ;
384 -> 386 ;
387 [label="NUMBER_OF_REQUESTS <= -0.34\nsquared_error = 0.085\nsamples = 53\nvalue = 0.094", fillcolor="#fdf3ec"] ;
325 -> 387 ;
388 [label="AVERAGE_TIME <= 1.427\nsquared_error = 0.071\nsamples = 52\nvalue = 0.077", fillcolor="#fdf5f0"] ;
387 -> 388 ;
389 [label="TOTAL_HTML <= -0.36\nsquared_error = 0.056\nsamples = 50\nvalue = 0.06", fillcolor="#fdf7f3"] ;
388 -> 389 ;
390 [label="SF_REFERRER <= 0.943\nsquared_error = 0.128\nsamples = 20\nvalue = 0.15", fillcolor="#fbece1"] ;
389 -> 390 ;
391 [label="IMAGES <= 0.201\nsquared_error = 0.055\nsamples = 17\nvalue = 0.059", fillcolor="#fdf8f3"] ;
390 -> 391 ;
392 [label="squared_error = 0.0\nsamples = 12\nvalue = 0.0", fillcolor="#ffffff"] ;
391 -> 392 ;
393 [label="DATA <= -0.167\nsquared_error = 0.16\nsamples = 5\nvalue = 0.2", fillcolor="#fae6d7"] ;
391 -> 393 ;
394 [label="squared_error = 0.0\nsamples = 4\nvalue = 0.0", fillcolor="#ffffff"] ;
393 -> 394 ;
395 [label="squared_error = 0.0\nsamples = 1\nvalue = 1.0", fillcolor="#e58139"] ;
393 -> 395 ;
396 [label="IMAGES <= -0.5\nsquared_error = 0.222\nsamples = 3\nvalue = 0.667", fillcolor="#eeab7b"] ;
390 -> 396 ;
397 [label="squared_error = 0.0\nsamples = 1\nvalue = 0.0", fillcolor="#ffffff"] ;
396 -> 397 ;
398 [label="squared_error = 0.0\nsamples = 2\nvalue = 1.0", fillcolor="#e58139"] ;
396 -> 398 ;
399 [label="squared_error = 0.0\nsamples = 30\nvalue = 0.0", fillcolor="#ffffff"] ;
389 -> 399 ;
400 [label="DATA <= -0.166\nsquared_error = 0.25\nsamples = 2\nvalue = 0.5", fillcolor="#f2c09c"] ;
388 -> 400 ;
401 [label="squared_error = 0.0\nsamples = 1\nvalue = 0.0", fillcolor="#ffffff"] ;
400 -> 401 ;
402 [label="squared_error = 0.0\nsamples = 1\nvalue = 1.0", fillcolor="#e58139"] ;
400 -> 402 ;
403 [label="squared_error = 0.0\nsamples = 1\nvalue = 1.0", fillcolor="#e58139"] ;
387 -> 403 ;
404 [label="SF_FILETYPE <= 0.377\nsquared_error = 0.25\nsamples = 2\nvalue = 0.5", fillcolor="#f2c09c"] ;
324 -> 404 ;
405 [label="squared_error = 0.0\nsamples = 1\nvalue = 1.0", fillcolor="#e58139"] ;
404 -> 405 ;
406 [label="squared_error = 0.0\nsamples = 1\nvalue = 0.0", fillcolor="#ffffff"] ;
404 -> 406 ;
407 [label="MAX_BARRAGE <= -0.723\nsquared_error = 0.003\nsamples = 4979\nvalue = 0.003", fillcolor="#fffffe"] ;
323 -> 407 ;
408 [label="DATA <= -0.177\nsquared_error = 0.005\nsamples = 3030\nvalue = 0.005", fillcolor="#fffefe"] ;
407 -> 408 ;
409 [label="NIGHT <= 2.665\nsquared_error = 0.001\nsamples = 1944\nvalue = 0.001", fillcolor="#ffffff"] ;
408 -> 409 ;
410 [label="DATA <= -0.179\nsquared_error = 0.001\nsamples = 1843\nvalue = 0.001", fillcolor="#ffffff"] ;
409 -> 410 ;
411 [label="squared_error = 0.0\nsamples = 1189\nvalue = 0.0", fillcolor="#ffffff"] ;
410 -> 411 ;
412 [label="DATA <= -0.179\nsquared_error = 0.002\nsamples = 654\nvalue = 0.002", fillcolor="#ffffff"] ;
410 -> 412 ;
413 [label="squared_error = 0.0\nsamples = 1\nvalue = 1.0", fillcolor="#e58139"] ;
412 -> 413 ;
414 [label="squared_error = 0.0\nsamples = 653\nvalue = 0.0", fillcolor="#ffffff"] ;
412 -> 414 ;
415 [label="DATA <= -0.179\nsquared_error = 0.01\nsamples = 101\nvalue = 0.01", fillcolor="#fffefd"] ;
409 -> 415 ;
416 [label="squared_error = 0.0\nsamples = 63\nvalue = 0.0", fillcolor="#ffffff"] ;
415 -> 416 ;
417 [label="DATA <= -0.179\nsquared_error = 0.026\nsamples = 38\nvalue = 0.026", fillcolor="#fefcfa"] ;
415 -> 417 ;
418 [label="squared_error = 0.0\nsamples = 1\nvalue = 1.0", fillcolor="#e58139"] ;
417 -> 418 ;
419 [label="squared_error = 0.0\nsamples = 37\nvalue = 0.0", fillcolor="#ffffff"] ;
417 -> 419 ;
420 [label="DATA <= -0.177\nsquared_error = 0.011\nsamples = 1086\nvalue = 0.011", fillcolor="#fffefd"] ;
408 -> 420 ;
421 [label="STD_DEPTH <= -0.549\nsquared_error = 0.222\nsamples = 3\nvalue = 0.333", fillcolor="#f6d5bd"] ;
420 -> 421 ;
422 [label="squared_error = 0.0\nsamples = 2\nvalue = 0.0", fillcolor="#ffffff"] ;
421 -> 422 ;
423 [label="squared_error = 0.0\nsamples = 1\nvalue = 1.0", fillcolor="#e58139"] ;
421 -> 423 ;
424 [label="NUMBER_OF_REQUESTS <= -0.419\nsquared_error = 0.01\nsamples = 1083\nvalue = 0.01", fillcolor="#fffefd"] ;
420 -> 424 ;
425 [label="DATA <= -0.157\nsquared_error = 0.036\nsamples = 214\nvalue = 0.037", fillcolor="#fefaf8"] ;
424 -> 425 ;
426 [label="DATA <= -0.164\nsquared_error = 0.028\nsamples = 212\nvalue = 0.028", fillcolor="#fefbf9"] ;
425 -> 426 ;
427 [label="DATA <= -0.176\nsquared_error = 0.023\nsamples = 209\nvalue = 0.024", fillcolor="#fefcfa"] ;
426 -> 427 ;
428 [label="DATA <= -0.177\nsquared_error = 0.008\nsamples = 131\nvalue = 0.008", fillcolor="#fffefd"] ;
427 -> 428 ;
429 [label="squared_error = 0.0\nsamples = 72\nvalue = 0.0", fillcolor="#ffffff"] ;
428 -> 429 ;
430 [label="DATA <= -0.177\nsquared_error = 0.017\nsamples = 59\nvalue = 0.017", fillcolor="#fffdfc"] ;
428 -> 430 ;
431 [label="squared_error = 0.0\nsamples = 1\nvalue = 1.0", fillcolor="#e58139"] ;
430 -> 431 ;
432 [label="squared_error = 0.0\nsamples = 58\nvalue = 0.0", fillcolor="#ffffff"] ;
430 -> 432 ;
433 [label="DATA <= -0.174\nsquared_error = 0.049\nsamples = 78\nvalue = 0.051", fillcolor="#fef9f5"] ;
427 -> 433 ;
434 [label="DATA <= -0.175\nsquared_error = 0.134\nsamples = 25\nvalue = 0.16", fillcolor="#fbebdf"] ;
433 -> 434 ;
435 [label="DATA <= -0.176\nsquared_error = 0.043\nsamples = 22\nvalue = 0.045", fillcolor="#fef9f6"] ;
434 -> 435 ;
436 [label="squared_error = 0.222\nsamples = 3\nvalue = 0.333", fillcolor="#f6d5bd"] ;
435 -> 436 ;
437 [label="squared_error = 0.0\nsamples = 19\nvalue = 0.0", fillcolor="#ffffff"] ;
435 -> 437 ;
438 [label="squared_error = 0.0\nsamples = 3\nvalue = 1.0", fillcolor="#e58139"] ;
434 -> 438 ;
439 [label="squared_error = 0.0\nsamples = 53\nvalue = 0.0", fillcolor="#ffffff"] ;
433 -> 439 ;
440 [label="DATA <= -0.164\nsquared_error = 0.222\nsamples = 3\nvalue = 0.333", fillcolor="#f6d5bd"] ;
426 -> 440 ;
441 [label="squared_error = 0.0\nsamples = 1\nvalue = 1.0", fillcolor="#e58139"] ;
440 -> 441 ;
442 [label="squared_error = 0.0\nsamples = 2\nvalue = 0.0", fillcolor="#ffffff"] ;
440 -> 442 ;
443 [label="squared_error = 0.0\nsamples = 2\nvalue = 1.0", fillcolor="#e58139"] ;
425 -> 443 ;
444 [label="IMAGES <= 0.958\nsquared_error = 0.003\nsamples = 869\nvalue = 0.003", fillcolor="#fffffe"] ;
424 -> 444 ;
445 [label="HTML_TO_CSS <= 0.066\nsquared_error = 0.002\nsamples = 858\nvalue = 0.002", fillcolor="#ffffff"] ;
444 -> 445 ;
446 [label="STANDARD_DEVIATION <= -0.371\nsquared_error = 0.001\nsamples = 837\nvalue = 0.001", fillcolor="#ffffff"] ;
445 -> 446 ;
447 [label="squared_error = 0.0\nsamples = 708\nvalue = 0.0", fillcolor="#ffffff"] ;
446 -> 447 ;
448 [label="STANDARD_DEVIATION <= -0.367\nsquared_error = 0.008\nsamples = 129\nvalue = 0.008", fillcolor="#fffefd"] ;
446 -> 448 ;
449 [label="squared_error = 0.0\nsamples = 1\nvalue = 1.0", fillcolor="#e58139"] ;
448 -> 449 ;
450 [label="squared_error = 0.0\nsamples = 128\nvalue = 0.0", fillcolor="#ffffff"] ;
448 -> 450 ;
451 [label="AVERAGE_TIME <= -0.178\nsquared_error = 0.045\nsamples = 21\nvalue = 0.048", fillcolor="#fef9f6"] ;
445 -> 451 ;
452 [label="squared_error = 0.0\nsamples = 19\nvalue = 0.0", fillcolor="#ffffff"] ;
451 -> 452 ;
453 [label="NUMBER_OF_REQUESTS <= -0.405\nsquared_error = 0.25\nsamples = 2\nvalue = 0.5", fillcolor="#f2c09c"] ;
451 -> 453 ;
454 [label="squared_error = 0.0\nsamples = 1\nvalue = 0.0", fillcolor="#ffffff"] ;
453 -> 454 ;
455 [label="squared_error = 0.0\nsamples = 1\nvalue = 1.0", fillcolor="#e58139"] ;
453 -> 455 ;
456 [label="STANDARD_DEVIATION <= -0.502\nsquared_error = 0.083\nsamples = 11\nvalue = 0.091", fillcolor="#fdf4ed"] ;
444 -> 456 ;
457 [label="squared_error = 0.0\nsamples = 1\nvalue = 1.0", fillcolor="#e58139"] ;
456 -> 457 ;
458 [label="squared_error = 0.0\nsamples = 10\nvalue = 0.0", fillcolor="#ffffff"] ;
456 -> 458 ;
459 [label="squared_error = 0.0\nsamples = 1949\nvalue = 0.0", fillcolor="#ffffff"] ;
407 -> 459 ;
460 [label="WIDTH <= -0.338\nsquared_error = 0.103\nsamples = 77\nvalue = 0.117", fillcolor="#fcf0e8"] ;
322 -> 460 ;
461 [label="CONSECUTIVE <= -0.972\nsquared_error = 0.032\nsamples = 61\nvalue = 0.033", fillcolor="#fefbf9"] ;
460 -> 461 ;
462 [label="HTML_TO_JS <= 0.035\nsquared_error = 0.122\nsamples = 14\nvalue = 0.143", fillcolor="#fbede3"] ;
461 -> 462 ;
463 [label="squared_error = 0.0\nsamples = 11\nvalue = 0.0", fillcolor="#ffffff"] ;
462 -> 463 ;
464 [label="IMAGES <= -0.359\nsquared_error = 0.222\nsamples = 3\nvalue = 0.667", fillcolor="#eeab7b"] ;
462 -> 464 ;
465 [label="squared_error = 0.0\nsamples = 1\nvalue = 0.0", fillcolor="#ffffff"] ;
464 -> 465 ;
466 [label="squared_error = 0.0\nsamples = 2\nvalue = 1.0", fillcolor="#e58139"] ;
464 -> 466 ;
467 [label="squared_error = 0.0\nsamples = 47\nvalue = 0.0", fillcolor="#ffffff"] ;
461 -> 467 ;
468 [label="DATA <= -0.085\nsquared_error = 0.246\nsamples = 16\nvalue = 0.438", fillcolor="#f4c8a8"] ;
460 -> 468 ;
469 [label="DATA <= -0.114\nsquared_error = 0.213\nsamples = 13\nvalue = 0.308", fillcolor="#f7d8c2"] ;
468 -> 469 ;
470 [label="squared_error = 0.0\nsamples = 2\nvalue = 1.0", fillcolor="#e58139"] ;
469 -> 470 ;
471 [label="SF_FILETYPE <= 0.524\nsquared_error = 0.149\nsamples = 11\nvalue = 0.182", fillcolor="#fae8db"] ;
469 -> 471 ;
472 [label="squared_error = 0.0\nsamples = 7\nvalue = 0.0", fillcolor="#ffffff"] ;
471 -> 472 ;
473 [label="UNASSIGNED <= -0.585\nsquared_error = 0.25\nsamples = 4\nvalue = 0.5", fillcolor="#f2c09c"] ;
471 -> 473 ;
474 [label="squared_error = 0.0\nsamples = 2\nvalue = 1.0", fillcolor="#e58139"] ;
473 -> 474 ;
475 [label="squared_error = 0.0\nsamples = 2\nvalue = 0.0", fillcolor="#ffffff"] ;
473 -> 475 ;
476 [label="squared_error = 0.0\nsamples = 3\nvalue = 1.0", fillcolor="#e58139"] ;
468 -> 476 ;
477 [label="HEAD_METHOD <= 0.962\nsquared_error = 0.001\nsamples = 28525\nvalue = 0.001", fillcolor="#ffffff"] ;
321 -> 477 ;
478 [label="MAX_BARRAGE <= -0.723\nsquared_error = 0.001\nsamples = 28520\nvalue = 0.001", fillcolor="#ffffff"] ;
477 -> 478 ;
479 [label="SF_FILETYPE <= 1.327\nsquared_error = 0.002\nsamples = 3630\nvalue = 0.002", fillcolor="#ffffff"] ;
478 -> 479 ;
480 [label="TOTAL_DURATION <= -0.077\nsquared_error = 0.002\nsamples = 3625\nvalue = 0.002", fillcolor="#ffffff"] ;
479 -> 480 ;
481 [label="REPEATED_REQUESTS <= 1.098\nsquared_error = 0.001\nsamples = 3574\nvalue = 0.001", fillcolor="#ffffff"] ;
480 -> 481 ;
482 [label="HTTP_RESPONSE_3XX <= 2.117\nsquared_error = 0.001\nsamples = 3547\nvalue = 0.001", fillcolor="#ffffff"] ;
481 -> 482 ;
483 [label="SF_REFERRER <= -1.038\nsquared_error = 0.001\nsamples = 3511\nvalue = 0.001", fillcolor="#ffffff"] ;
482 -> 483 ;
484 [label="DATA <= -0.099\nsquared_error = 0.009\nsamples = 223\nvalue = 0.009", fillcolor="#fffefd"] ;
483 -> 484 ;
485 [label="DATA <= -0.099\nsquared_error = 0.116\nsamples = 15\nvalue = 0.133", fillcolor="#fceee5"] ;
484 -> 485 ;
486 [label="squared_error = 0.0\nsamples = 13\nvalue = 0.0", fillcolor="#ffffff"] ;
485 -> 486 ;
487 [label="squared_error = 0.0\nsamples = 2\nvalue = 1.0", fillcolor="#e58139"] ;
485 -> 487 ;
488 [label="squared_error = 0.0\nsamples = 208\nvalue = 0.0", fillcolor="#ffffff"] ;
484 -> 488 ;
489 [label="UNASSIGNED <= -0.454\nsquared_error = 0.0\nsamples = 3288\nvalue = 0.0", fillcolor="#ffffff"] ;
483 -> 489 ;
490 [label="squared_error = 0.0\nsamples = 3216\nvalue = 0.0", fillcolor="#ffffff"] ;
489 -> 490 ;
491 [label="SF_REFERRER <= 0.078\nsquared_error = 0.014\nsamples = 72\nvalue = 0.014", fillcolor="#fffdfc"] ;
489 -> 491 ;
492 [label="squared_error = 0.0\nsamples = 51\nvalue = 0.0", fillcolor="#ffffff"] ;
491 -> 492 ;
493 [label="DATA <= -0.065\nsquared_error = 0.045\nsamples = 21\nvalue = 0.048", fillcolor="#fef9f6"] ;
491 -> 493 ;
494 [label="SF_FILETYPE <= -0.153\nsquared_error = 0.139\nsamples = 6\nvalue = 0.167", fillcolor="#fbeade"] ;
493 -> 494 ;
495 [label="squared_error = 0.0\nsamples = 1\nvalue = 1.0", fillcolor="#e58139"] ;
494 -> 495 ;
496 [label="squared_error = 0.0\nsamples = 5\nvalue = 0.0", fillcolor="#ffffff"] ;
494 -> 496 ;
497 [label="squared_error = 0.0\nsamples = 15\nvalue = 0.0", fillcolor="#ffffff"] ;
493 -> 497 ;
498 [label="HTTP_RESPONSE_2XX <= -1.122\nsquared_error = 0.027\nsamples = 36\nvalue = 0.028", fillcolor="#fefcfa"] ;
482 -> 498 ;
499 [label="squared_error = 0.0\nsamples = 34\nvalue = 0.0", fillcolor="#ffffff"] ;
498 -> 499 ;
500 [label="AVERAGE_TIME <= -0.22\nsquared_error = 0.25\nsamples = 2\nvalue = 0.5", fillcolor="#f2c09c"] ;
498 -> 500 ;
501 [label="squared_error = 0.0\nsamples = 1\nvalue = 1.0", fillcolor="#e58139"] ;
500 -> 501 ;
502 [label="squared_error = 0.0\nsamples = 1\nvalue = 0.0", fillcolor="#ffffff"] ;
500 -> 502 ;
503 [label="REPEATED_REQUESTS <= 1.363\nsquared_error = 0.036\nsamples = 27\nvalue = 0.037", fillcolor="#fefaf8"] ;
481 -> 503 ;
504 [label="squared_error = 0.0\nsamples = 1\nvalue = 1.0", fillcolor="#e58139"] ;
503 -> 504 ;
505 [label="squared_error = 0.0\nsamples = 26\nvalue = 0.0", fillcolor="#ffffff"] ;
503 -> 505 ;
506 [label="TOTAL_DURATION <= -0.077\nsquared_error = 0.055\nsamples = 51\nvalue = 0.059", fillcolor="#fdf8f3"] ;
480 -> 506 ;
507 [label="squared_error = 0.0\nsamples = 1\nvalue = 1.0", fillcolor="#e58139"] ;
506 -> 507 ;
508 [label="REPEATED_REQUESTS <= 1.656\nsquared_error = 0.038\nsamples = 50\nvalue = 0.04", fillcolor="#fefaf7"] ;
506 -> 508 ;
509 [label="HTML_TO_IMAGE <= 4.087\nsquared_error = 0.02\nsamples = 49\nvalue = 0.02", fillcolor="#fefcfb"] ;
508 -> 509 ;
510 [label="squared_error = 0.0\nsamples = 46\nvalue = 0.0", fillcolor="#ffffff"] ;
509 -> 510 ;
511 [label="SF_REFERRER <= -0.514\nsquared_error = 0.222\nsamples = 3\nvalue = 0.333", fillcolor="#f6d5bd"] ;
509 -> 511 ;
512 [label="squared_error = 0.0\nsamples = 1\nvalue = 1.0", fillcolor="#e58139"] ;
511 -> 512 ;
513 [label="squared_error = 0.0\nsamples = 2\nvalue = 0.0", fillcolor="#ffffff"] ;
511 -> 513 ;
514 [label="squared_error = 0.0\nsamples = 1\nvalue = 1.0", fillcolor="#e58139"] ;
508 -> 514 ;
515 [label="HTML_TO_CSS <= 0.999\nsquared_error = 0.16\nsamples = 5\nvalue = 0.2", fillcolor="#fae6d7"] ;
479 -> 515 ;
516 [label="squared_error = 0.0\nsamples = 1\nvalue = 1.0", fillcolor="#e58139"] ;
515 -> 516 ;
517 [label="squared_error = 0.0\nsamples = 4\nvalue = 0.0", fillcolor="#ffffff"] ;
515 -> 517 ;
518 [label="HTML_TO_JS <= -0.075\nsquared_error = 0.0\nsamples = 24890\nvalue = 0.0", fillcolor="#ffffff"] ;
478 -> 518 ;
519 [label="HTTP_RESPONSE_4XX <= -0.026\nsquared_error = 0.0\nsamples = 14792\nvalue = 0.0", fillcolor="#ffffff"] ;
518 -> 519 ;
520 [label="squared_error = 0.0\nsamples = 14021\nvalue = 0.0", fillcolor="#ffffff"] ;
519 -> 520 ;
521 [label="HTTP_RESPONSE_2XX <= 0.103\nsquared_error = 0.001\nsamples = 771\nvalue = 0.001", fillcolor="#ffffff"] ;
519 -> 521 ;
522 [label="squared_error = 0.0\nsamples = 768\nvalue = 0.0", fillcolor="#ffffff"] ;
521 -> 522 ;
523 [label="SF_REFERRER <= -0.151\nsquared_error = 0.222\nsamples = 3\nvalue = 0.333", fillcolor="#f6d5bd"] ;
521 -> 523 ;
524 [label="squared_error = 0.0\nsamples = 2\nvalue = 0.0", fillcolor="#ffffff"] ;
523 -> 524 ;
525 [label="squared_error = 0.0\nsamples = 1\nvalue = 1.0", fillcolor="#e58139"] ;
523 -> 525 ;
526 [label="SF_REFERRER <= 1.352\nsquared_error = 0.001\nsamples = 10098\nvalue = 0.001", fillcolor="#ffffff"] ;
518 -> 526 ;
527 [label="UNASSIGNED <= -0.547\nsquared_error = 0.001\nsamples = 10055\nvalue = 0.001", fillcolor="#ffffff"] ;
526 -> 527 ;
528 [label="IMAGES <= -0.803\nsquared_error = 0.0\nsamples = 8582\nvalue = 0.0", fillcolor="#ffffff"] ;
527 -> 528 ;
529 [label="IMAGES <= -0.806\nsquared_error = 0.01\nsamples = 99\nvalue = 0.01", fillcolor="#fffefd"] ;
528 -> 529 ;
530 [label="squared_error = 0.0\nsamples = 96\nvalue = 0.0", fillcolor="#ffffff"] ;
529 -> 530 ;
531 [label="PENALTY <= -0.178\nsquared_error = 0.222\nsamples = 3\nvalue = 0.333", fillcolor="#f6d5bd"] ;
529 -> 531 ;
532 [label="squared_error = 0.0\nsamples = 2\nvalue = 0.0", fillcolor="#ffffff"] ;
531 -> 532 ;
533 [label="squared_error = 0.0\nsamples = 1\nvalue = 1.0", fillcolor="#e58139"] ;
531 -> 533 ;
534 [label="IMAGES <= 1.286\nsquared_error = 0.0\nsamples = 8483\nvalue = 0.0", fillcolor="#ffffff"] ;
528 -> 534 ;
535 [label="AVERAGE_TIME <= -0.166\nsquared_error = 0.0\nsamples = 8377\nvalue = 0.0", fillcolor="#ffffff"] ;
534 -> 535 ;
536 [label="squared_error = 0.0\nsamples = 7569\nvalue = 0.0", fillcolor="#ffffff"] ;
535 -> 536 ;
537 [label="AVERAGE_TIME <= -0.166\nsquared_error = 0.002\nsamples = 808\nvalue = 0.002", fillcolor="#ffffff"] ;
535 -> 537 ;
538 [label="squared_error = 0.0\nsamples = 1\nvalue = 1.0", fillcolor="#e58139"] ;
537 -> 538 ;
539 [label="NIGHT <= 3.552\nsquared_error = 0.001\nsamples = 807\nvalue = 0.001", fillcolor="#ffffff"] ;
537 -> 539 ;
540 [label="squared_error = 0.0\nsamples = 771\nvalue = 0.0", fillcolor="#ffffff"] ;
539 -> 540 ;
541 [label="TOTAL_HTML <= -0.439\nsquared_error = 0.027\nsamples = 36\nvalue = 0.028", fillcolor="#fefcfa"] ;
539 -> 541 ;
542 [label="squared_error = 0.0\nsamples = 32\nvalue = 0.0", fillcolor="#ffffff"] ;
541 -> 542 ;
543 [label="WIDTH <= -0.068\nsquared_error = 0.188\nsamples = 4\nvalue = 0.25", fillcolor="#f8e0ce"] ;
541 -> 543 ;
544 [label="squared_error = 0.0\nsamples = 1\nvalue = 1.0", fillcolor="#e58139"] ;
543 -> 544 ;
545 [label="squared_error = 0.0\nsamples = 3\nvalue = 0.0", fillcolor="#ffffff"] ;
543 -> 545 ;
546 [label="IMAGES <= 1.287\nsquared_error = 0.009\nsamples = 106\nvalue = 0.009", fillcolor="#fffefd"] ;
534 -> 546 ;
547 [label="squared_error = 0.0\nsamples = 1\nvalue = 1.0", fillcolor="#e58139"] ;
546 -> 547 ;
548 [label="squared_error = 0.0\nsamples = 105\nvalue = 0.0", fillcolor="#ffffff"] ;
546 -> 548 ;
549 [label="MAX_BARRAGE <= 1.774\nsquared_error = 0.003\nsamples = 1473\nvalue = 0.003", fillcolor="#fffffe"] ;
527 -> 549 ;
550 [label="SF_REFERRER <= -0.771\nsquared_error = 0.002\nsamples = 1467\nvalue = 0.002", fillcolor="#ffffff"] ;
549 -> 550 ;
551 [label="TOTAL_HTML <= -0.616\nsquared_error = 0.062\nsamples = 15\nvalue = 0.067", fillcolor="#fdf7f2"] ;
550 -> 551 ;
552 [label="STANDARD_DEVIATION <= -0.305\nsquared_error = 0.25\nsamples = 2\nvalue = 0.5", fillcolor="#f2c09c"] ;
551 -> 552 ;
553 [label="squared_error = 0.0\nsamples = 1\nvalue = 1.0", fillcolor="#e58139"] ;
552 -> 553 ;
554 [label="squared_error = 0.0\nsamples = 1\nvalue = 0.0", fillcolor="#ffffff"] ;
552 -> 554 ;
555 [label="squared_error = 0.0\nsamples = 13\nvalue = 0.0", fillcolor="#ffffff"] ;
551 -> 555 ;
556 [label="SF_FILETYPE <= -0.282\nsquared_error = 0.001\nsamples = 1452\nvalue = 0.001", fillcolor="#ffffff"] ;
550 -> 556 ;
557 [label="SF_FILETYPE <= -0.285\nsquared_error = 0.012\nsamples = 166\nvalue = 0.012", fillcolor="#fffdfd"] ;
556 -> 557 ;
558 [label="SF_REFERRER <= 0.233\nsquared_error = 0.006\nsamples = 163\nvalue = 0.006", fillcolor="#fffefe"] ;
557 -> 558 ;
559 [label="squared_error = 0.0\nsamples = 145\nvalue = 0.0", fillcolor="#ffffff"] ;
558 -> 559 ;
560 [label="SF_REFERRER <= 0.244\nsquared_error = 0.052\nsamples = 18\nvalue = 0.056", fillcolor="#fef8f4"] ;
558 -> 560 ;
561 [label="UNASSIGNED <= -0.454\nsquared_error = 0.25\nsamples = 2\nvalue = 0.5", fillcolor="#f2c09c"] ;
560 -> 561 ;
562 [label="squared_error = 0.0\nsamples = 1\nvalue = 1.0", fillcolor="#e58139"] ;
561 -> 562 ;
563 [label="squared_error = 0.0\nsamples = 1\nvalue = 0.0", fillcolor="#ffffff"] ;
561 -> 563 ;
564 [label="squared_error = 0.0\nsamples = 16\nvalue = 0.0", fillcolor="#ffffff"] ;
560 -> 564 ;
565 [label="CONSECUTIVE <= 0.323\nsquared_error = 0.222\nsamples = 3\nvalue = 0.333", fillcolor="#f6d5bd"] ;
557 -> 565 ;
566 [label="squared_error = 0.0\nsamples = 2\nvalue = 0.0", fillcolor="#ffffff"] ;
565 -> 566 ;
567 [label="squared_error = 0.0\nsamples = 1\nvalue = 1.0", fillcolor="#e58139"] ;
565 -> 567 ;
568 [label="squared_error = 0.0\nsamples = 1286\nvalue = 0.0", fillcolor="#ffffff"] ;
556 -> 568 ;
569 [label="STANDARD_DEVIATION <= -0.451\nsquared_error = 0.222\nsamples = 6\nvalue = 0.333", fillcolor="#f6d5bd"] ;
549 -> 569 ;
570 [label="squared_error = 0.0\nsamples = 2\nvalue = 1.0", fillcolor="#e58139"] ;
569 -> 570 ;
571 [label="squared_error = 0.0\nsamples = 4\nvalue = 0.0", fillcolor="#ffffff"] ;
569 -> 571 ;
572 [label="TOTAL_HTML <= -0.549\nsquared_error = 0.023\nsamples = 43\nvalue = 0.023", fillcolor="#fefcfa"] ;
526 -> 572 ;
573 [label="squared_error = 0.0\nsamples = 1\nvalue = 1.0", fillcolor="#e58139"] ;
572 -> 573 ;
574 [label="squared_error = 0.0\nsamples = 42\nvalue = 0.0", fillcolor="#ffffff"] ;
572 -> 574 ;
575 [label="GET_METHOD <= -0.99\nsquared_error = 0.16\nsamples = 5\nvalue = 0.2", fillcolor="#fae6d7"] ;
477 -> 575 ;
576 [label="squared_error = 0.0\nsamples = 4\nvalue = 0.0", fillcolor="#ffffff"] ;
575 -> 576 ;
577 [label="squared_error = 0.0\nsamples = 1\nvalue = 1.0", fillcolor="#e58139"] ;
575 -> 577 ;
578 [label="squared_error = 0.0\nsamples = 1\nvalue = 1.0", fillcolor="#e58139"] ;
310 -> 578 ;
579 [label="HTML_TO_CSS <= 0.09\nsquared_error = 0.035\nsamples = 1813\nvalue = 0.036", fillcolor="#fefaf8"] ;
309 -> 579 ;
580 [label="AVERAGE_TIME <= 1.848\nsquared_error = 0.024\nsamples = 1698\nvalue = 0.025", fillcolor="#fefcfa"] ;
579 -> 580 ;
581 [label="PPI <= 18.957\nsquared_error = 0.019\nsamples = 1656\nvalue = 0.019", fillcolor="#fefdfb"] ;
580 -> 581 ;
582 [label="AVERAGE_TIME <= 0.186\nsquared_error = 0.018\nsamples = 1655\nvalue = 0.019", fillcolor="#fffdfb"] ;
581 -> 582 ;
583 [label="POST_METHOD <= 12.737\nsquared_error = 0.011\nsamples = 1474\nvalue = 0.011", fillcolor="#fffefd"] ;
582 -> 583 ;
584 [label="HTML_TO_JS <= -0.239\nsquared_error = 0.01\nsamples = 1473\nvalue = 0.01", fillcolor="#fffefd"] ;
583 -> 584 ;
585 [label="TOTAL_HTML <= -0.076\nsquared_error = 0.004\nsamples = 1339\nvalue = 0.004", fillcolor="#fffffe"] ;
584 -> 585 ;
586 [label="HTML_TO_IMAGE <= -0.634\nsquared_error = 0.043\nsamples = 44\nvalue = 0.045", fillcolor="#fef9f6"] ;
585 -> 586 ;
587 [label="squared_error = 0.0\nsamples = 2\nvalue = 1.0", fillcolor="#e58139"] ;
586 -> 587 ;
588 [label="squared_error = 0.0\nsamples = 42\nvalue = 0.0", fillcolor="#ffffff"] ;
586 -> 588 ;
589 [label="UNASSIGNED <= 0.874\nsquared_error = 0.002\nsamples = 1295\nvalue = 0.002", fillcolor="#ffffff"] ;
585 -> 589 ;
590 [label="DATA <= -0.177\nsquared_error = 0.002\nsamples = 1262\nvalue = 0.002", fillcolor="#ffffff"] ;
589 -> 590 ;
591 [label="DATA <= -0.177\nsquared_error = 0.012\nsamples = 164\nvalue = 0.012", fillcolor="#fffdfd"] ;
590 -> 591 ;
592 [label="TOTAL_HTML <= 0.387\nsquared_error = 0.006\nsamples = 163\nvalue = 0.006", fillcolor="#fffefe"] ;
591 -> 592 ;
593 [label="DATA <= -0.177\nsquared_error = 0.122\nsamples = 7\nvalue = 0.143", fillcolor="#fbede3"] ;
592 -> 593 ;
594 [label="squared_error = 0.0\nsamples = 6\nvalue = 0.0", fillcolor="#ffffff"] ;
593 -> 594 ;
595 [label="squared_error = 0.0\nsamples = 1\nvalue = 1.0", fillcolor="#e58139"] ;
593 -> 595 ;
596 [label="squared_error = 0.0\nsamples = 156\nvalue = 0.0", fillcolor="#ffffff"] ;
592 -> 596 ;
597 [label="squared_error = 0.0\nsamples = 1\nvalue = 1.0", fillcolor="#e58139"] ;
591 -> 597 ;
598 [label="squared_error = 0.0\nsamples = 1098\nvalue = 0.0", fillcolor="#ffffff"] ;
590 -> 598 ;
599 [label="DATA <= -0.173\nsquared_error = 0.029\nsamples = 33\nvalue = 0.03", fillcolor="#fefbf9"] ;
589 -> 599 ;
600 [label="squared_error = 0.0\nsamples = 24\nvalue = 0.0", fillcolor="#ffffff"] ;
599 -> 600 ;
601 [label="DATA <= -0.173\nsquared_error = 0.099\nsamples = 9\nvalue = 0.111", fillcolor="#fcf1e9"] ;
599 -> 601 ;
602 [label="squared_error = 0.0\nsamples = 1\nvalue = 1.0", fillcolor="#e58139"] ;
601 -> 602 ;
603 [label="squared_error = 0.0\nsamples = 8\nvalue = 0.0", fillcolor="#ffffff"] ;
601 -> 603 ;
604 [label="NIGHT <= 1.684\nsquared_error = 0.069\nsamples = 134\nvalue = 0.075", fillcolor="#fdf6f0"] ;
584 -> 604 ;
605 [label="TOTAL_DURATION <= -0.086\nsquared_error = 0.038\nsamples = 125\nvalue = 0.04", fillcolor="#fefaf7"] ;
604 -> 605 ;
606 [label="AVERAGE_TIME <= -0.217\nsquared_error = 0.24\nsamples = 10\nvalue = 0.4", fillcolor="#f5cdb0"] ;
605 -> 606 ;
607 [label="DATA <= -0.177\nsquared_error = 0.139\nsamples = 6\nvalue = 0.167", fillcolor="#fbeade"] ;
606 -> 607 ;
608 [label="SF_FILETYPE <= 1.658\nsquared_error = 0.25\nsamples = 2\nvalue = 0.5", fillcolor="#f2c09c"] ;
607 -> 608 ;
609 [label="squared_error = 0.0\nsamples = 1\nvalue = 1.0", fillcolor="#e58139"] ;
608 -> 609 ;
610 [label="squared_error = 0.0\nsamples = 1\nvalue = 0.0", fillcolor="#ffffff"] ;
608 -> 610 ;
611 [label="squared_error = 0.0\nsamples = 4\nvalue = 0.0", fillcolor="#ffffff"] ;
607 -> 611 ;
612 [label="DATA <= -0.173\nsquared_error = 0.188\nsamples = 4\nvalue = 0.75", fillcolor="#eca06a"] ;
606 -> 612 ;
613 [label="HTTP_RESPONSE_2XX <= -2.051\nsquared_error = 0.25\nsamples = 2\nvalue = 0.5", fillcolor="#f2c09c"] ;
612 -> 613 ;
614 [label="squared_error = 0.0\nsamples = 1\nvalue = 1.0", fillcolor="#e58139"] ;
613 -> 614 ;
615 [label="squared_error = 0.0\nsamples = 1\nvalue = 0.0", fillcolor="#ffffff"] ;
613 -> 615 ;
616 [label="squared_error = 0.0\nsamples = 2\nvalue = 1.0", fillcolor="#e58139"] ;
612 -> 616 ;
617 [label="DATA <= -0.178\nsquared_error = 0.009\nsamples = 115\nvalue = 0.009", fillcolor="#fffefd"] ;
605 -> 617 ;
618 [label="DATA <= -0.178\nsquared_error = 0.139\nsamples = 6\nvalue = 0.167", fillcolor="#fbeade"] ;
617 -> 618 ;
619 [label="squared_error = 0.0\nsamples = 5\nvalue = 0.0", fillcolor="#ffffff"] ;
618 -> 619 ;
620 [label="squared_error = 0.0\nsamples = 1\nvalue = 1.0", fillcolor="#e58139"] ;
618 -> 620 ;
621 [label="squared_error = 0.0\nsamples = 109\nvalue = 0.0", fillcolor="#ffffff"] ;
617 -> 621 ;
622 [label="SF_REFERRER <= 0.722\nsquared_error = 0.247\nsamples = 9\nvalue = 0.556", fillcolor="#f1b991"] ;
604 -> 622 ;
623 [label="squared_error = 0.0\nsamples = 2\nvalue = 0.0", fillcolor="#ffffff"] ;
622 -> 623 ;
624 [label="STD_DEPTH <= 1.91\nsquared_error = 0.204\nsamples = 7\nvalue = 0.714", fillcolor="#eca572"] ;
622 -> 624 ;
625 [label="squared_error = 0.0\nsamples = 5\nvalue = 1.0", fillcolor="#e58139"] ;
624 -> 625 ;
626 [label="squared_error = 0.0\nsamples = 2\nvalue = 0.0", fillcolor="#ffffff"] ;
624 -> 626 ;
627 [label="squared_error = 0.0\nsamples = 1\nvalue = 1.0", fillcolor="#e58139"] ;
583 -> 627 ;
628 [label="STANDARD_DEVIATION <= 0.508\nsquared_error = 0.076\nsamples = 181\nvalue = 0.083", fillcolor="#fdf5ef"] ;
582 -> 628 ;
629 [label="DATA <= -0.175\nsquared_error = 0.242\nsamples = 17\nvalue = 0.412", fillcolor="#f4cbad"] ;
628 -> 629 ;
630 [label="squared_error = 0.0\nsamples = 7\nvalue = 0.0", fillcolor="#ffffff"] ;
629 -> 630 ;
631 [label="TOTAL_DURATION <= -0.062\nsquared_error = 0.21\nsamples = 10\nvalue = 0.7", fillcolor="#eda774"] ;
629 -> 631 ;
632 [label="AVERAGE_TIME <= 0.197\nsquared_error = 0.188\nsamples = 4\nvalue = 0.25", fillcolor="#f8e0ce"] ;
631 -> 632 ;
633 [label="squared_error = 0.0\nsamples = 1\nvalue = 1.0", fillcolor="#e58139"] ;
632 -> 633 ;
634 [label="squared_error = 0.0\nsamples = 3\nvalue = 0.0", fillcolor="#ffffff"] ;
632 -> 634 ;
635 [label="squared_error = 0.0\nsamples = 6\nvalue = 1.0", fillcolor="#e58139"] ;
631 -> 635 ;
636 [label="TOTAL_HTML <= 0.102\nsquared_error = 0.046\nsamples = 164\nvalue = 0.049", fillcolor="#fef9f5"] ;
628 -> 636 ;
637 [label="IMAGES <= -0.825\nsquared_error = 0.247\nsamples = 9\nvalue = 0.444", fillcolor="#f3c7a7"] ;
636 -> 637 ;
638 [label="squared_error = 0.0\nsamples = 4\nvalue = 1.0", fillcolor="#e58139"] ;
637 -> 638 ;
639 [label="squared_error = 0.0\nsamples = 5\nvalue = 0.0", fillcolor="#ffffff"] ;
637 -> 639 ;
640 [label="STANDARD_DEVIATION <= 1.333\nsquared_error = 0.025\nsamples = 155\nvalue = 0.026", fillcolor="#fefcfa"] ;
636 -> 640 ;
641 [label="TOTAL_HTML <= 0.48\nsquared_error = 0.112\nsamples = 31\nvalue = 0.129", fillcolor="#fcefe5"] ;
640 -> 641 ;
642 [label="PPI <= -0.033\nsquared_error = 0.188\nsamples = 4\nvalue = 0.75", fillcolor="#eca06a"] ;
641 -> 642 ;
643 [label="squared_error = 0.0\nsamples = 1\nvalue = 0.0", fillcolor="#ffffff"] ;
642 -> 643 ;
644 [label="squared_error = 0.0\nsamples = 3\nvalue = 1.0", fillcolor="#e58139"] ;
642 -> 644 ;
645 [label="AVERAGE_TIME <= 0.542\nsquared_error = 0.036\nsamples = 27\nvalue = 0.037", fillcolor="#fefaf8"] ;
641 -> 645 ;
646 [label="squared_error = 0.0\nsamples = 23\nvalue = 0.0", fillcolor="#ffffff"] ;
645 -> 646 ;
647 [label="AVERAGE_TIME <= 0.556\nsquared_error = 0.188\nsamples = 4\nvalue = 0.25", fillcolor="#f8e0ce"] ;
645 -> 647 ;
648 [label="squared_error = 0.0\nsamples = 1\nvalue = 1.0", fillcolor="#e58139"] ;
647 -> 648 ;
649 [label="squared_error = 0.0\nsamples = 3\nvalue = 0.0", fillcolor="#ffffff"] ;
647 -> 649 ;
650 [label="squared_error = 0.0\nsamples = 124\nvalue = 0.0", fillcolor="#ffffff"] ;
640 -> 650 ;
651 [label="squared_error = 0.0\nsamples = 1\nvalue = 1.0", fillcolor="#e58139"] ;
581 -> 651 ;
652 [label="MAX_BARRAGE <= -0.621\nsquared_error = 0.181\nsamples = 42\nvalue = 0.238", fillcolor="#f9e1d0"] ;
580 -> 652 ;
653 [label="DATA <= -0.179\nsquared_error = 0.117\nsamples = 37\nvalue = 0.135", fillcolor="#fbeee4"] ;
652 -> 653 ;
654 [label="squared_error = 0.0\nsamples = 1\nvalue = 1.0", fillcolor="#e58139"] ;
653 -> 654 ;
655 [label="TOTAL_HTML <= 0.387\nsquared_error = 0.099\nsamples = 36\nvalue = 0.111", fillcolor="#fcf1e9"] ;
653 -> 655 ;
656 [label="TOTAL_DURATION <= 0.019\nsquared_error = 0.25\nsamples = 4\nvalue = 0.5", fillcolor="#f2c09c"] ;
655 -> 656 ;
657 [label="squared_error = 0.0\nsamples = 2\nvalue = 1.0", fillcolor="#e58139"] ;
656 -> 657 ;
658 [label="squared_error = 0.0\nsamples = 2\nvalue = 0.0", fillcolor="#ffffff"] ;
656 -> 658 ;
659 [label="SF_REFERRER <= 1.494\nsquared_error = 0.059\nsamples = 32\nvalue = 0.062", fillcolor="#fdf7f3"] ;
655 -> 659 ;
660 [label="AVERAGE_TIME <= 4.721\nsquared_error = 0.188\nsamples = 8\nvalue = 0.25", fillcolor="#f8e0ce"] ;
659 -> 660 ;
661 [label="squared_error = 0.0\nsamples = 6\nvalue = 0.0", fillcolor="#ffffff"] ;
660 -> 661 ;
662 [label="squared_error = 0.0\nsamples = 2\nvalue = 1.0", fillcolor="#e58139"] ;
660 -> 662 ;
663 [label="squared_error = 0.0\nsamples = 24\nvalue = 0.0", fillcolor="#ffffff"] ;
659 -> 663 ;
664 [label="squared_error = 0.0\nsamples = 5\nvalue = 1.0", fillcolor="#e58139"] ;
652 -> 664 ;
665 [label="AVERAGE_TIME <= -0.212\nsquared_error = 0.165\nsamples = 115\nvalue = 0.209", fillcolor="#fae5d6"] ;
579 -> 665 ;
666 [label="STD_DEPTH <= 0.867\nsquared_error = 0.25\nsamples = 43\nvalue = 0.488", fillcolor="#f2c19e"] ;
665 -> 666 ;
667 [label="HTML_TO_JS <= -0.398\nsquared_error = 0.204\nsamples = 28\nvalue = 0.714", fillcolor="#eca572"] ;
666 -> 667 ;
668 [label="DATA <= -0.171\nsquared_error = 0.16\nsamples = 10\nvalue = 0.2", fillcolor="#fae6d7"] ;
667 -> 668 ;
669 [label="squared_error = 0.0\nsamples = 2\nvalue = 1.0", fillcolor="#e58139"] ;
668 -> 669 ;
670 [label="squared_error = 0.0\nsamples = 8\nvalue = 0.0", fillcolor="#ffffff"] ;
668 -> 670 ;
671 [label="squared_error = 0.0\nsamples = 18\nvalue = 1.0", fillcolor="#e58139"] ;
667 -> 671 ;
672 [label="NUMBER_OF_REQUESTS <= -0.412\nsquared_error = 0.062\nsamples = 15\nvalue = 0.067", fillcolor="#fdf7f2"] ;
666 -> 672 ;
673 [label="TOTAL_DURATION <= -0.086\nsquared_error = 0.25\nsamples = 2\nvalue = 0.5", fillcolor="#f2c09c"] ;
672 -> 673 ;
674 [label="squared_error = 0.0\nsamples = 1\nvalue = 0.0", fillcolor="#ffffff"] ;
673 -> 674 ;
675 [label="squared_error = 0.0\nsamples = 1\nvalue = 1.0", fillcolor="#e58139"] ;
673 -> 675 ;
676 [label="squared_error = 0.0\nsamples = 13\nvalue = 0.0", fillcolor="#ffffff"] ;
672 -> 676 ;
677 [label="TOTAL_DURATION <= 0.116\nsquared_error = 0.04\nsamples = 72\nvalue = 0.042", fillcolor="#fefaf7"] ;
665 -> 677 ;
678 [label="NUMBER_OF_REQUESTS <= -0.412\nsquared_error = 0.027\nsamples = 71\nvalue = 0.028", fillcolor="#fefbf9"] ;
677 -> 678 ;
679 [label="DEPTH <= 0.439\nsquared_error = 0.083\nsamples = 22\nvalue = 0.091", fillcolor="#fdf4ed"] ;
678 -> 679 ;
680 [label="squared_error = 0.0\nsamples = 15\nvalue = 0.0", fillcolor="#ffffff"] ;
679 -> 680 ;
681 [label="STD_DEPTH <= 1.815\nsquared_error = 0.204\nsamples = 7\nvalue = 0.286", fillcolor="#f8dbc6"] ;
679 -> 681 ;
682 [label="squared_error = 0.0\nsamples = 2\nvalue = 1.0", fillcolor="#e58139"] ;
681 -> 682 ;
683 [label="squared_error = 0.0\nsamples = 5\nvalue = 0.0", fillcolor="#ffffff"] ;
681 -> 683 ;
684 [label="squared_error = 0.0\nsamples = 49\nvalue = 0.0", fillcolor="#ffffff"] ;
678 -> 684 ;
685 [label="squared_error = 0.0\nsamples = 1\nvalue = 1.0", fillcolor="#e58139"] ;
677 -> 685 ;
686 [label="UNASSIGNED <= -0.074\nsquared_error = 0.219\nsamples = 37\nvalue = 0.324", fillcolor="#f7d6bf"] ;
308 -> 686 ;
687 [label="HTML_TO_IMAGE <= -0.634\nsquared_error = 0.196\nsamples = 15\nvalue = 0.733", fillcolor="#eca36e"] ;
686 -> 687 ;
688 [label="squared_error = 0.0\nsamples = 2\nvalue = 0.0", fillcolor="#ffffff"] ;
687 -> 688 ;
689 [label="DATA <= -0.178\nsquared_error = 0.13\nsamples = 13\nvalue = 0.846", fillcolor="#e99457"] ;
687 -> 689 ;
690 [label="squared_error = 0.0\nsamples = 1\nvalue = 0.0", fillcolor="#ffffff"] ;
689 -> 690 ;
691 [label="TOTAL_DURATION <= -0.086\nsquared_error = 0.076\nsamples = 12\nvalue = 0.917", fillcolor="#e78c4a"] ;
689 -> 691 ;
692 [label="squared_error = 0.0\nsamples = 7\nvalue = 1.0", fillcolor="#e58139"] ;
691 -> 692 ;
693 [label="NIGHT <= 1.684\nsquared_error = 0.16\nsamples = 5\nvalue = 0.8", fillcolor="#ea9a61"] ;
691 -> 693 ;
694 [label="TOTAL_DURATION <= -0.086\nsquared_error = 0.222\nsamples = 3\nvalue = 0.667", fillcolor="#eeab7b"] ;
693 -> 694 ;
695 [label="squared_error = 0.25\nsamples = 2\nvalue = 0.5", fillcolor="#f2c09c"] ;
694 -> 695 ;
696 [label="squared_error = 0.0\nsamples = 1\nvalue = 1.0", fillcolor="#e58139"] ;
694 -> 696 ;
697 [label="squared_error = 0.0\nsamples = 2\nvalue = 1.0", fillcolor="#e58139"] ;
693 -> 697 ;
698 [label="NIGHT <= 1.684\nsquared_error = 0.043\nsamples = 22\nvalue = 0.045", fillcolor="#fef9f6"] ;
686 -> 698 ;
699 [label="squared_error = 0.0\nsamples = 18\nvalue = 0.0", fillcolor="#ffffff"] ;
698 -> 699 ;
700 [label="TOTAL_DURATION <= -0.086\nsquared_error = 0.188\nsamples = 4\nvalue = 0.25", fillcolor="#f8e0ce"] ;
698 -> 700 ;
701 [label="squared_error = 0.0\nsamples = 2\nvalue = 0.0", fillcolor="#ffffff"] ;
700 -> 701 ;
702 [label="DATA <= -0.174\nsquared_error = 0.25\nsamples = 2\nvalue = 0.5", fillcolor="#f2c09c"] ;
700 -> 702 ;
703 [label="squared_error = 0.0\nsamples = 1\nvalue = 1.0", fillcolor="#e58139"] ;
702 -> 703 ;
704 [label="squared_error = 0.0\nsamples = 1\nvalue = 0.0", fillcolor="#ffffff"] ;
702 -> 704 ;
705 [label="squared_error = 0.0\nsamples = 46\nvalue = 1.0", fillcolor="#e58139"] ;
1 -> 705 ;
706 [label="PENALTY <= -0.178\nsquared_error = 0.179\nsamples = 13555\nvalue = 0.766", fillcolor="#eb9e67"] ;
0 -> 706 [labeldistance=2.5, labelangle=-45, headlabel="False"] ;
707 [label="HTTP_RESPONSE_2XX <= -2.952\nsquared_error = 0.159\nsamples = 12818\nvalue = 0.801", fillcolor="#ea9a60"] ;
706 -> 707 ;
708 [label="DATA <= -0.172\nsquared_error = 0.216\nsamples = 699\nvalue = 0.315", fillcolor="#f7d7c1"] ;
707 -> 708 ;
709 [label="DEPTH <= 0.439\nsquared_error = 0.203\nsamples = 226\nvalue = 0.717", fillcolor="#eca571"] ;
708 -> 709 ;
710 [label="DATA <= -0.173\nsquared_error = 0.175\nsamples = 199\nvalue = 0.774", fillcolor="#eb9d66"] ;
709 -> 710 ;
711 [label="DATA <= -0.179\nsquared_error = 0.212\nsamples = 138\nvalue = 0.696", fillcolor="#eda775"] ;
710 -> 711 ;
712 [label="DATA <= -0.182\nsquared_error = 0.128\nsamples = 53\nvalue = 0.849", fillcolor="#e99457"] ;
711 -> 712 ;
713 [label="NIGHT <= 1.684\nsquared_error = 0.188\nsamples = 4\nvalue = 0.25", fillcolor="#f8e0ce"] ;
712 -> 713 ;
714 [label="squared_error = 0.0\nsamples = 3\nvalue = 0.0", fillcolor="#ffffff"] ;
713 -> 714 ;
715 [label="squared_error = 0.0\nsamples = 1\nvalue = 1.0", fillcolor="#e58139"] ;
713 -> 715 ;
716 [label="DEPTH <= -1.574\nsquared_error = 0.092\nsamples = 49\nvalue = 0.898", fillcolor="#e88e4d"] ;
712 -> 716 ;
717 [label="squared_error = 0.0\nsamples = 2\nvalue = 0.0", fillcolor="#ffffff"] ;
716 -> 717 ;
718 [label="HTML_TO_IMAGE <= -0.24\nsquared_error = 0.06\nsamples = 47\nvalue = 0.936", fillcolor="#e78946"] ;
716 -> 718 ;
719 [label="DATA <= -0.182\nsquared_error = 0.042\nsamples = 46\nvalue = 0.957", fillcolor="#e68642"] ;
718 -> 719 ;
720 [label="NIGHT <= 1.684\nsquared_error = 0.109\nsamples = 16\nvalue = 0.875", fillcolor="#e89152"] ;
719 -> 720 ;
721 [label="squared_error = 0.109\nsamples = 8\nvalue = 0.875", fillcolor="#e89152"] ;
720 -> 721 ;
722 [label="squared_error = 0.109\nsamples = 8\nvalue = 0.875", fillcolor="#e89152"] ;
720 -> 722 ;
723 [label="squared_error = 0.0\nsamples = 30\nvalue = 1.0", fillcolor="#e58139"] ;
719 -> 723 ;
724 [label="squared_error = 0.0\nsamples = 1\nvalue = 0.0", fillcolor="#ffffff"] ;
718 -> 724 ;
725 [label="HTML_TO_IMAGE <= -0.634\nsquared_error = 0.24\nsamples = 85\nvalue = 0.6", fillcolor="#efb388"] ;
711 -> 725 ;
726 [label="TOTAL_HTML <= -0.088\nsquared_error = 0.249\nsamples = 43\nvalue = 0.465", fillcolor="#f3c4a3"] ;
725 -> 726 ;
727 [label="DEPTH <= -1.574\nsquared_error = 0.194\nsamples = 19\nvalue = 0.263", fillcolor="#f8decb"] ;
726 -> 727 ;
728 [label="DATA <= -0.174\nsquared_error = 0.071\nsamples = 13\nvalue = 0.077", fillcolor="#fdf5f0"] ;
727 -> 728 ;
729 [label="squared_error = 0.0\nsamples = 12\nvalue = 0.0", fillcolor="#ffffff"] ;
728 -> 729 ;
730 [label="squared_error = 0.0\nsamples = 1\nvalue = 1.0", fillcolor="#e58139"] ;
728 -> 730 ;
731 [label="DATA <= -0.174\nsquared_error = 0.222\nsamples = 6\nvalue = 0.667", fillcolor="#eeab7b"] ;
727 -> 731 ;
732 [label="DATA <= -0.175\nsquared_error = 0.222\nsamples = 3\nvalue = 0.333", fillcolor="#f6d5bd"] ;
731 -> 732 ;
733 [label="squared_error = 0.0\nsamples = 1\nvalue = 1.0", fillcolor="#e58139"] ;
732 -> 733 ;
734 [label="squared_error = 0.0\nsamples = 2\nvalue = 0.0", fillcolor="#ffffff"] ;
732 -> 734 ;
735 [label="squared_error = 0.0\nsamples = 3\nvalue = 1.0", fillcolor="#e58139"] ;
731 -> 735 ;
736 [label="DEPTH <= -1.574\nsquared_error = 0.234\nsamples = 24\nvalue = 0.625", fillcolor="#efb083"] ;
726 -> 736 ;
737 [label="squared_error = 0.0\nsamples = 12\nvalue = 1.0", fillcolor="#e58139"] ;
736 -> 737 ;
738 [label="DATA <= -0.177\nsquared_error = 0.188\nsamples = 12\nvalue = 0.25", fillcolor="#f8e0ce"] ;
736 -> 738 ;
739 [label="squared_error = 0.0\nsamples = 4\nvalue = 0.0", fillcolor="#ffffff"] ;
738 -> 739 ;
740 [label="GET_METHOD <= -8.887\nsquared_error = 0.234\nsamples = 8\nvalue = 0.375", fillcolor="#f5d0b5"] ;
738 -> 740 ;
741 [label="squared_error = 0.0\nsamples = 3\nvalue = 0.0", fillcolor="#ffffff"] ;
740 -> 741 ;
742 [label="DATA <= -0.176\nsquared_error = 0.24\nsamples = 5\nvalue = 0.6", fillcolor="#efb388"] ;
740 -> 742 ;
743 [label="squared_error = 0.0\nsamples = 3\nvalue = 1.0", fillcolor="#e58139"] ;
742 -> 743 ;
744 [label="squared_error = 0.0\nsamples = 2\nvalue = 0.0", fillcolor="#ffffff"] ;
742 -> 744 ;
745 [label="DATA <= -0.174\nsquared_error = 0.193\nsamples = 42\nvalue = 0.738", fillcolor="#eca26d"] ;
725 -> 745 ;
746 [label="HTTP_RESPONSE_4XX <= 7.97\nsquared_error = 0.071\nsamples = 13\nvalue = 0.923", fillcolor="#e78b48"] ;
745 -> 746 ;
747 [label="squared_error = 0.0\nsamples = 1\nvalue = 0.0", fillcolor="#ffffff"] ;
746 -> 747 ;
748 [label="squared_error = 0.0\nsamples = 12\nvalue = 1.0", fillcolor="#e58139"] ;
746 -> 748 ;
749 [label="NIGHT <= 1.684\nsquared_error = 0.226\nsamples = 29\nvalue = 0.655", fillcolor="#eeac7d"] ;
745 -> 749 ;
750 [label="DATA <= -0.174\nsquared_error = 0.24\nsamples = 25\nvalue = 0.6", fillcolor="#efb388"] ;
749 -> 750 ;
751 [label="DATA <= -0.174\nsquared_error = 0.243\nsamples = 24\nvalue = 0.583", fillcolor="#f0b68c"] ;
750 -> 751 ;
752 [label="squared_error = 0.238\nsamples = 23\nvalue = 0.609", fillcolor="#efb286"] ;
751 -> 752 ;
753 [label="squared_error = 0.0\nsamples = 1\nvalue = 0.0", fillcolor="#ffffff"] ;
751 -> 753 ;
754 [label="squared_error = 0.0\nsamples = 1\nvalue = 1.0", fillcolor="#e58139"] ;
750 -> 754 ;
755 [label="squared_error = 0.0\nsamples = 4\nvalue = 1.0", fillcolor="#e58139"] ;
749 -> 755 ;
756 [label="HTTP_RESPONSE_5XX <= 18.537\nsquared_error = 0.047\nsamples = 61\nvalue = 0.951", fillcolor="#e68743"] ;
710 -> 756 ;
757 [label="DATA <= -0.173\nsquared_error = 0.017\nsamples = 58\nvalue = 0.983", fillcolor="#e5833c"] ;
756 -> 757 ;
758 [label="squared_error = 0.0\nsamples = 39\nvalue = 1.0", fillcolor="#e58139"] ;
757 -> 758 ;
759 [label="HTTP_RESPONSE_4XX <= 7.97\nsquared_error = 0.05\nsamples = 19\nvalue = 0.947", fillcolor="#e68843"] ;
757 -> 759 ;
760 [label="squared_error = 0.0\nsamples = 14\nvalue = 1.0", fillcolor="#e58139"] ;
759 -> 760 ;
761 [label="squared_error = 0.16\nsamples = 5\nvalue = 0.8", fillcolor="#ea9a61"] ;
759 -> 761 ;
762 [label="DATA <= -0.173\nsquared_error = 0.222\nsamples = 3\nvalue = 0.333", fillcolor="#f6d5bd"] ;
756 -> 762 ;
763 [label="squared_error = 0.0\nsamples = 1\nvalue = 1.0", fillcolor="#e58139"] ;
762 -> 763 ;
764 [label="squared_error = 0.0\nsamples = 2\nvalue = 0.0", fillcolor="#ffffff"] ;
762 -> 764 ;
765 [label="GET_METHOD <= -8.887\nsquared_error = 0.209\nsamples = 27\nvalue = 0.296", fillcolor="#f7dac4"] ;
709 -> 765 ;
766 [label="SF_REFERRER <= -0.603\nsquared_error = 0.122\nsamples = 7\nvalue = 0.857", fillcolor="#e99355"] ;
765 -> 766 ;
767 [label="squared_error = 0.0\nsamples = 1\nvalue = 1.0", fillcolor="#e58139"] ;
766 -> 767 ;
768 [label="squared_error = 0.139\nsamples = 6\nvalue = 0.833", fillcolor="#e9965a"] ;
766 -> 768 ;
769 [label="DATA <= -0.175\nsquared_error = 0.09\nsamples = 20\nvalue = 0.1", fillcolor="#fcf2eb"] ;
765 -> 769 ;
770 [label="AVERAGE_TIME <= 1.923\nsquared_error = 0.05\nsamples = 19\nvalue = 0.053", fillcolor="#fef8f5"] ;
769 -> 770 ;
771 [label="squared_error = 0.0\nsamples = 18\nvalue = 0.0", fillcolor="#ffffff"] ;
770 -> 771 ;
772 [label="squared_error = 0.0\nsamples = 1\nvalue = 1.0", fillcolor="#e58139"] ;
770 -> 772 ;
773 [label="squared_error = 0.0\nsamples = 1\nvalue = 1.0", fillcolor="#e58139"] ;
769 -> 773 ;
774 [label="AVERAGE_TIME <= 0.035\nsquared_error = 0.108\nsamples = 473\nvalue = 0.123", fillcolor="#fcf0e7"] ;
708 -> 774 ;
775 [label="TOTAL_HTML <= 1.337\nsquared_error = 0.057\nsamples = 431\nvalue = 0.06", fillcolor="#fdf7f3"] ;
774 -> 775 ;
776 [label="POST_METHOD <= 3.716\nsquared_error = 0.035\nsamples = 419\nvalue = 0.036", fillcolor="#fefaf8"] ;
775 -> 776 ;
777 [label="DATA <= -0.141\nsquared_error = 0.03\nsamples = 417\nvalue = 0.031", fillcolor="#fefbf9"] ;
776 -> 777 ;
778 [label="STANDARD_DEVIATION <= -0.495\nsquared_error = 0.018\nsamples = 392\nvalue = 0.018", fillcolor="#fffdfb"] ;
777 -> 778 ;
779 [label="AVERAGE_TIME <= -0.199\nsquared_error = 0.01\nsamples = 377\nvalue = 0.011", fillcolor="#fffefd"] ;
778 -> 779 ;
780 [label="NIGHT <= 1.684\nsquared_error = 0.008\nsamples = 370\nvalue = 0.008", fillcolor="#fffefd"] ;
779 -> 780 ;
781 [label="squared_error = 0.0\nsamples = 315\nvalue = 0.0", fillcolor="#ffffff"] ;
780 -> 781 ;
782 [label="CONSECUTIVE <= 0.799\nsquared_error = 0.052\nsamples = 55\nvalue = 0.055", fillcolor="#fef8f4"] ;
780 -> 782 ;
783 [label="DEPTH <= -1.239\nsquared_error = 0.036\nsamples = 54\nvalue = 0.037", fillcolor="#fefaf8"] ;
782 -> 783 ;
784 [label="squared_error = 0.0\nsamples = 44\nvalue = 0.0", fillcolor="#ffffff"] ;
783 -> 784 ;
785 [label="CONSECUTIVE <= -0.986\nsquared_error = 0.16\nsamples = 10\nvalue = 0.2", fillcolor="#fae6d7"] ;
783 -> 785 ;
786 [label="squared_error = 0.0\nsamples = 2\nvalue = 1.0", fillcolor="#e58139"] ;
785 -> 786 ;
787 [label="squared_error = 0.0\nsamples = 8\nvalue = 0.0", fillcolor="#ffffff"] ;
785 -> 787 ;
788 [label="squared_error = 0.0\nsamples = 1\nvalue = 1.0", fillcolor="#e58139"] ;
782 -> 788 ;
789 [label="AVERAGE_TIME <= -0.189\nsquared_error = 0.122\nsamples = 7\nvalue = 0.143", fillcolor="#fbede3"] ;
779 -> 789 ;
790 [label="DATA <= -0.168\nsquared_error = 0.25\nsamples = 2\nvalue = 0.5", fillcolor="#f2c09c"] ;
789 -> 790 ;
791 [label="squared_error = 0.0\nsamples = 1\nvalue = 1.0", fillcolor="#e58139"] ;
790 -> 791 ;
792 [label="squared_error = 0.0\nsamples = 1\nvalue = 0.0", fillcolor="#ffffff"] ;
790 -> 792 ;
793 [label="squared_error = 0.0\nsamples = 5\nvalue = 0.0", fillcolor="#ffffff"] ;
789 -> 793 ;
794 [label="HTML_TO_IMAGE <= -0.044\nsquared_error = 0.16\nsamples = 15\nvalue = 0.2", fillcolor="#fae6d7"] ;
778 -> 794 ;
795 [label="DATA <= -0.162\nsquared_error = 0.24\nsamples = 5\nvalue = 0.6", fillcolor="#efb388"] ;
794 -> 795 ;
796 [label="squared_error = 0.0\nsamples = 2\nvalue = 0.0", fillcolor="#ffffff"] ;
795 -> 796 ;
797 [label="squared_error = 0.0\nsamples = 3\nvalue = 1.0", fillcolor="#e58139"] ;
795 -> 797 ;
798 [label="squared_error = 0.0\nsamples = 10\nvalue = 0.0", fillcolor="#ffffff"] ;
794 -> 798 ;
799 [label="AVERAGE_TIME <= -0.22\nsquared_error = 0.182\nsamples = 25\nvalue = 0.24", fillcolor="#f9e1cf"] ;
777 -> 799 ;
800 [label="squared_error = 0.0\nsamples = 4\nvalue = 1.0", fillcolor="#e58139"] ;
799 -> 800 ;
801 [label="DATA <= -0.131\nsquared_error = 0.086\nsamples = 21\nvalue = 0.095", fillcolor="#fdf3ec"] ;
799 -> 801 ;
802 [label="squared_error = 0.0\nsamples = 2\nvalue = 1.0", fillcolor="#e58139"] ;
801 -> 802 ;
803 [label="squared_error = 0.0\nsamples = 19\nvalue = 0.0", fillcolor="#ffffff"] ;
801 -> 803 ;
804 [label="squared_error = 0.0\nsamples = 2\nvalue = 1.0", fillcolor="#e58139"] ;
776 -> 804 ;
805 [label="HTTP_RESPONSE_5XX <= 18.537\nsquared_error = 0.076\nsamples = 12\nvalue = 0.917", fillcolor="#e78c4a"] ;
775 -> 805 ;
806 [label="squared_error = 0.0\nsamples = 11\nvalue = 1.0", fillcolor="#e58139"] ;
805 -> 806 ;
807 [label="squared_error = 0.0\nsamples = 1\nvalue = 0.0", fillcolor="#ffffff"] ;
805 -> 807 ;
808 [label="DEPTH <= -0.903\nsquared_error = 0.181\nsamples = 42\nvalue = 0.762", fillcolor="#eb9f68"] ;
774 -> 808 ;
809 [label="STANDARD_DEVIATION <= 5.792\nsquared_error = 0.078\nsamples = 35\nvalue = 0.914", fillcolor="#e78c4a"] ;
808 -> 809 ;
810 [label="AVERAGE_TIME <= 0.444\nsquared_error = 0.055\nsamples = 34\nvalue = 0.941", fillcolor="#e78845"] ;
809 -> 810 ;
811 [label="STANDARD_DEVIATION <= 0.172\nsquared_error = 0.173\nsamples = 9\nvalue = 0.778", fillcolor="#eb9d65"] ;
810 -> 811 ;
812 [label="squared_error = 0.0\nsamples = 7\nvalue = 1.0", fillcolor="#e58139"] ;
811 -> 812 ;
813 [label="squared_error = 0.0\nsamples = 2\nvalue = 0.0", fillcolor="#ffffff"] ;
811 -> 813 ;
814 [label="squared_error = 0.0\nsamples = 25\nvalue = 1.0", fillcolor="#e58139"] ;
810 -> 814 ;
815 [label="squared_error = 0.0\nsamples = 1\nvalue = 0.0", fillcolor="#ffffff"] ;
809 -> 815 ;
816 [label="squared_error = 0.0\nsamples = 7\nvalue = 0.0", fillcolor="#ffffff"] ;
808 -> 816 ;
817 [label="TOTAL_HTML <= 2.049\nsquared_error = 0.142\nsamples = 12119\nvalue = 0.829", fillcolor="#e9975b"] ;
707 -> 817 ;
818 [label="DEPTH <= -0.232\nsquared_error = 0.086\nsamples = 7489\nvalue = 0.905", fillcolor="#e78d4c"] ;
817 -> 818 ;
819 [label="GET_METHOD <= -8.887\nsquared_error = 0.011\nsamples = 4926\nvalue = 0.988", fillcolor="#e5823b"] ;
818 -> 819 ;
820 [label="squared_error = 0.0\nsamples = 1\nvalue = 0.0", fillcolor="#ffffff"] ;
819 -> 820 ;
821 [label="HTML_TO_IMAGE <= -0.388\nsquared_error = 0.011\nsamples = 4925\nvalue = 0.989", fillcolor="#e5823b"] ;
819 -> 821 ;
822 [label="DATA <= -0.182\nsquared_error = 0.007\nsamples = 4332\nvalue = 0.993", fillcolor="#e5823a"] ;
821 -> 822 ;
823 [label="IMAGES <= 0.522\nsquared_error = 0.038\nsamples = 430\nvalue = 0.96", fillcolor="#e68641"] ;
822 -> 823 ;
824 [label="squared_error = 0.0\nsamples = 279\nvalue = 1.0", fillcolor="#e58139"] ;
823 -> 824 ;
825 [label="DATA <= -0.182\nsquared_error = 0.1\nsamples = 151\nvalue = 0.887", fillcolor="#e88f4f"] ;
823 -> 825 ;
826 [label="squared_error = 0.0\nsamples = 10\nvalue = 0.0", fillcolor="#ffffff"] ;
825 -> 826 ;
827 [label="NIGHT <= 1.684\nsquared_error = 0.047\nsamples = 141\nvalue = 0.95", fillcolor="#e68743"] ;
825 -> 827 ;
828 [label="DATA <= -0.182\nsquared_error = 0.064\nsamples = 102\nvalue = 0.931", fillcolor="#e78a47"] ;
827 -> 828 ;
829 [label="squared_error = 0.0\nsamples = 10\nvalue = 1.0", fillcolor="#e58139"] ;
828 -> 829 ;
830 [label="squared_error = 0.07\nsamples = 92\nvalue = 0.924", fillcolor="#e78b48"] ;
828 -> 830 ;
831 [label="squared_error = 0.0\nsamples = 39\nvalue = 1.0", fillcolor="#e58139"] ;
827 -> 831 ;
832 [label="SF_REFERRER <= 0.596\nsquared_error = 0.004\nsamples = 3902\nvalue = 0.996", fillcolor="#e5813a"] ;
822 -> 832 ;
833 [label="IMAGES <= 1.484\nsquared_error = 0.003\nsamples = 3890\nvalue = 0.997", fillcolor="#e5813a"] ;
832 -> 833 ;
834 [label="squared_error = 0.0\nsamples = 1728\nvalue = 1.0", fillcolor="#e58139"] ;
833 -> 834 ;
835 [label="DATA <= -0.178\nsquared_error = 0.006\nsamples = 2162\nvalue = 0.994", fillcolor="#e5823a"] ;
833 -> 835 ;
836 [label="NIGHT <= 1.684\nsquared_error = 0.005\nsamples = 1972\nvalue = 0.995", fillcolor="#e5823a"] ;
835 -> 836 ;
837 [label="DATA <= -0.18\nsquared_error = 0.005\nsamples = 1750\nvalue = 0.995", fillcolor="#e5823a"] ;
836 -> 837 ;
838 [label="DATA <= -0.182\nsquared_error = 0.005\nsamples = 1662\nvalue = 0.995", fillcolor="#e5823a"] ;
837 -> 838 ;
839 [label="squared_error = 0.005\nsamples = 1515\nvalue = 0.995", fillcolor="#e5823a"] ;
838 -> 839 ;
840 [label="squared_error = 0.0\nsamples = 147\nvalue = 1.0", fillcolor="#e58139"] ;
838 -> 840 ;
841 [label="DATA <= -0.18\nsquared_error = 0.011\nsamples = 88\nvalue = 0.989", fillcolor="#e5823b"] ;
837 -> 841 ;
842 [label="squared_error = 0.0\nsamples = 1\nvalue = 0.0", fillcolor="#ffffff"] ;
841 -> 842 ;
843 [label="squared_error = 0.0\nsamples = 87\nvalue = 1.0", fillcolor="#e58139"] ;
841 -> 843 ;
844 [label="squared_error = 0.0\nsamples = 222\nvalue = 1.0", fillcolor="#e58139"] ;
836 -> 844 ;
845 [label="DATA <= -0.177\nsquared_error = 0.021\nsamples = 190\nvalue = 0.979", fillcolor="#e6843d"] ;
835 -> 845 ;
846 [label="squared_error = 0.0\nsamples = 2\nvalue = 0.0", fillcolor="#ffffff"] ;
845 -> 846 ;
847 [label="DATA <= -0.172\nsquared_error = 0.011\nsamples = 188\nvalue = 0.989", fillcolor="#e5823b"] ;
845 -> 847 ;
848 [label="squared_error = 0.0\nsamples = 123\nvalue = 1.0", fillcolor="#e58139"] ;
847 -> 848 ;
849 [label="DATA <= -0.172\nsquared_error = 0.03\nsamples = 65\nvalue = 0.969", fillcolor="#e6853f"] ;
847 -> 849 ;
850 [label="squared_error = 0.0\nsamples = 1\nvalue = 0.0", fillcolor="#ffffff"] ;
849 -> 850 ;
851 [label="DATA <= -0.169\nsquared_error = 0.015\nsamples = 64\nvalue = 0.984", fillcolor="#e5833c"] ;
849 -> 851 ;
852 [label="DATA <= -0.169\nsquared_error = 0.071\nsamples = 13\nvalue = 0.923", fillcolor="#e78b48"] ;
851 -> 852 ;
853 [label="squared_error = 0.0\nsamples = 11\nvalue = 1.0", fillcolor="#e58139"] ;
852 -> 853 ;
854 [label="squared_error = 0.25\nsamples = 2\nvalue = 0.5", fillcolor="#f2c09c"] ;
852 -> 854 ;
855 [label="squared_error = 0.0\nsamples = 51\nvalue = 1.0", fillcolor="#e58139"] ;
851 -> 855 ;
856 [label="UNASSIGNED <= 1.205\nsquared_error = 0.076\nsamples = 12\nvalue = 0.917", fillcolor="#e78c4a"] ;
832 -> 856 ;
857 [label="squared_error = 0.0\nsamples = 11\nvalue = 1.0", fillcolor="#e58139"] ;
856 -> 857 ;
858 [label="squared_error = 0.0\nsamples = 1\nvalue = 0.0", fillcolor="#ffffff"] ;
856 -> 858 ;
859 [label="DATA <= -0.181\nsquared_error = 0.04\nsamples = 593\nvalue = 0.958", fillcolor="#e68641"] ;
821 -> 859 ;
860 [label="squared_error = 0.0\nsamples = 10\nvalue = 0.0", fillcolor="#ffffff"] ;
859 -> 860 ;
861 [label="STANDARD_DEVIATION <= -0.503\nsquared_error = 0.025\nsamples = 583\nvalue = 0.974", fillcolor="#e6843e"] ;
859 -> 861 ;
862 [label="squared_error = 0.0\nsamples = 271\nvalue = 1.0", fillcolor="#e58139"] ;
861 -> 862 ;
863 [label="DATA <= -0.181\nsquared_error = 0.046\nsamples = 312\nvalue = 0.952", fillcolor="#e68743"] ;
861 -> 863 ;
864 [label="squared_error = 0.0\nsamples = 2\nvalue = 0.0", fillcolor="#ffffff"] ;
863 -> 864 ;
865 [label="AVERAGE_TIME <= -0.221\nsquared_error = 0.04\nsamples = 310\nvalue = 0.958", fillcolor="#e68641"] ;
863 -> 865 ;
866 [label="AVERAGE_TIME <= -0.221\nsquared_error = 0.25\nsamples = 4\nvalue = 0.5", fillcolor="#f2c09c"] ;
865 -> 866 ;
867 [label="NUMBER_OF_REQUESTS <= -0.336\nsquared_error = 0.222\nsamples = 3\nvalue = 0.667", fillcolor="#eeab7b"] ;
866 -> 867 ;
868 [label="squared_error = 0.0\nsamples = 1\nvalue = 1.0", fillcolor="#e58139"] ;
867 -> 868 ;
869 [label="DATA <= -0.174\nsquared_error = 0.25\nsamples = 2\nvalue = 0.5", fillcolor="#f2c09c"] ;
867 -> 869 ;
870 [label="squared_error = 0.0\nsamples = 1\nvalue = 0.0", fillcolor="#ffffff"] ;
869 -> 870 ;
871 [label="squared_error = 0.0\nsamples = 1\nvalue = 1.0", fillcolor="#e58139"] ;
869 -> 871 ;
872 [label="squared_error = 0.0\nsamples = 1\nvalue = 0.0", fillcolor="#ffffff"] ;
866 -> 872 ;
873 [label="TOTAL_DURATION <= 0.214\nsquared_error = 0.035\nsamples = 306\nvalue = 0.964", fillcolor="#e68640"] ;
865 -> 873 ;
874 [label="CONSECUTIVE <= 1.986\nsquared_error = 0.058\nsamples = 178\nvalue = 0.938", fillcolor="#e78945"] ;
873 -> 874 ;
875 [label="TOTAL_DURATION <= 0.21\nsquared_error = 0.049\nsamples = 175\nvalue = 0.949", fillcolor="#e68743"] ;
874 -> 875 ;
876 [label="CONSECUTIVE <= 1.632\nsquared_error = 0.044\nsamples = 174\nvalue = 0.954", fillcolor="#e68742"] ;
875 -> 876 ;
877 [label="AVERAGE_TIME <= 2.346\nsquared_error = 0.02\nsamples = 146\nvalue = 0.979", fillcolor="#e6843d"] ;
876 -> 877 ;
878 [label="squared_error = 0.0\nsamples = 73\nvalue = 1.0", fillcolor="#e58139"] ;
877 -> 878 ;
879 [label="AVERAGE_TIME <= 2.403\nsquared_error = 0.039\nsamples = 73\nvalue = 0.959", fillcolor="#e68641"] ;
877 -> 879 ;
880 [label="squared_error = 0.0\nsamples = 1\nvalue = 0.0", fillcolor="#ffffff"] ;
879 -> 880 ;
881 [label="AVERAGE_TIME <= 3.328\nsquared_error = 0.027\nsamples = 72\nvalue = 0.972", fillcolor="#e6843e"] ;
879 -> 881 ;
882 [label="AVERAGE_TIME <= 3.306\nsquared_error = 0.079\nsamples = 23\nvalue = 0.913", fillcolor="#e78c4a"] ;
881 -> 882 ;
883 [label="TOTAL_DURATION <= 0.139\nsquared_error = 0.043\nsamples = 22\nvalue = 0.955", fillcolor="#e68742"] ;
882 -> 883 ;
884 [label="squared_error = 0.0\nsamples = 19\nvalue = 1.0", fillcolor="#e58139"] ;
883 -> 884 ;
885 [label="DATA <= -0.178\nsquared_error = 0.222\nsamples = 3\nvalue = 0.667", fillcolor="#eeab7b"] ;
883 -> 885 ;
886 [label="squared_error = 0.0\nsamples = 2\nvalue = 1.0", fillcolor="#e58139"] ;
885 -> 886 ;
887 [label="squared_error = 0.0\nsamples = 1\nvalue = 0.0", fillcolor="#ffffff"] ;
885 -> 887 ;
888 [label="squared_error = 0.0\nsamples = 1\nvalue = 0.0", fillcolor="#ffffff"] ;
882 -> 888 ;
889 [label="squared_error = 0.0\nsamples = 49\nvalue = 1.0", fillcolor="#e58139"] ;
881 -> 889 ;
890 [label="DATA <= -0.18\nsquared_error = 0.147\nsamples = 28\nvalue = 0.821", fillcolor="#ea985c"] ;
876 -> 890 ;
891 [label="squared_error = 0.0\nsamples = 1\nvalue = 0.0", fillcolor="#ffffff"] ;
890 -> 891 ;
892 [label="AVERAGE_TIME <= 0.614\nsquared_error = 0.126\nsamples = 27\nvalue = 0.852", fillcolor="#e99456"] ;
890 -> 892 ;
893 [label="squared_error = 0.0\nsamples = 10\nvalue = 1.0", fillcolor="#e58139"] ;
892 -> 893 ;
894 [label="TOTAL_DURATION <= 0.075\nsquared_error = 0.18\nsamples = 17\nvalue = 0.765", fillcolor="#eb9f68"] ;
892 -> 894 ;
895 [label="STANDARD_DEVIATION <= 1.091\nsquared_error = 0.188\nsamples = 4\nvalue = 0.25", fillcolor="#f8e0ce"] ;
894 -> 895 ;
896 [label="squared_error = 0.0\nsamples = 1\nvalue = 1.0", fillcolor="#e58139"] ;
895 -> 896 ;
897 [label="squared_error = 0.0\nsamples = 3\nvalue = 0.0", fillcolor="#ffffff"] ;
895 -> 897 ;
898 [label="STANDARD_DEVIATION <= 0.74\nsquared_error = 0.071\nsamples = 13\nvalue = 0.923", fillcolor="#e78b48"] ;
894 -> 898 ;
899 [label="squared_error = 0.0\nsamples = 1\nvalue = 0.0", fillcolor="#ffffff"] ;
898 -> 899 ;
900 [label="squared_error = 0.0\nsamples = 12\nvalue = 1.0", fillcolor="#e58139"] ;
898 -> 900 ;
901 [label="squared_error = 0.0\nsamples = 1\nvalue = 0.0", fillcolor="#ffffff"] ;
875 -> 901 ;
